78 200
</s> 0.002001 0.002210 -0.001915 -0.001639 0.000683 0.001511 0.000470 0.000106 -0.001802 0.001109 -0.002178 0.000625 -0.000376 -0.000479 -0.001658 -0.000941 0.001290 0.001513 0.001485 0.000799 0.000772 -0.001901 -0.002048 0.002485 0.001901 0.001545 -0.000302 0.002008 -0.000247 0.000367 -0.000075 -0.001492 0.000656 -0.000669 -0.001913 0.002377 0.002190 -0.000548 -0.000113 0.000255 -0.001819 -0.002004 0.002277 0.000032 -0.001291 -0.001521 -0.001538 0.000848 0.000101 0.000666 -0.002107 -0.001904 -0.000065 0.000572 0.001275 -0.001585 0.002040 0.000463 0.000560 -0.000304 0.001493 -0.001144 -0.001049 0.001079 -0.000377 0.000515 0.000902 -0.002044 -0.000992 0.001457 0.002116 0.001966 -0.001523 -0.001054 -0.000455 0.001001 -0.001894 0.001499 0.001394 -0.000799 -0.000776 -0.001119 0.002114 0.001956 -0.000590 0.002107 0.002410 0.000908 0.002491 -0.001556 -0.000766 -0.001054 -0.001454 0.001407 0.000790 0.000212 -0.001097 0.000762 0.001530 0.000097 0.001140 -0.002476 0.002157 0.000240 -0.000916 -0.001042 -0.000374 -0.001468 -0.002185 -0.001419 0.002139 -0.000885 -0.001340 0.001159 -0.000852 0.002378 -0.000802 -0.002294 0.001358 -0.000037 -0.001744 0.000488 0.000721 -0.000241 0.000912 -0.001979 0.000441 0.000908 -0.001505 0.000071 -0.000030 -0.001200 -0.001416 -0.002347 0.000011 0.000076 0.000005 -0.001967 -0.002481 -0.002373 -0.002163 -0.000274 0.000696 0.000592 -0.001591 0.002499 -0.001006 -0.000637 -0.000702 0.002366 -0.001882 0.000581 -0.000668 0.001594 0.000020 0.002135 -0.001410 -0.001303 -0.002096 -0.001833 -0.001600 -0.001557 0.001222 -0.000933 0.001340 0.001845 0.000678 0.001475 0.001238 0.001170 -0.001775 -0.001717 -0.001828 -0.000066 0.002065 -0.001368 -0.001530 -0.002098 0.001653 -0.002089 -0.000290 0.001089 -0.002309 -0.002239 0.000721 0.001762 0.002132 0.001073 0.001581 -0.001564 -0.001820 0.001987 -0.001382 0.000877 0.000287 0.000895 -0.000591 0.000099 -0.000843 -0.000563 
of -0.031696 -0.038645 0.003245 0.000212 -0.006403 -0.045056 -0.014342 0.005599 0.014043 0.024705 0.008965 -0.013571 0.005687 -0.015073 -0.004247 -0.007356 -0.037007 0.052977 0.029114 -0.015093 -0.006519 0.027072 0.026863 -0.010573 -0.011511 -0.011410 -0.041756 0.017810 0.020292 0.010675 0.006980 -0.046811 -0.006551 0.046405 0.002735 -0.017646 0.004142 -0.015058 0.021174 0.008636 0.003198 0.026578 -0.028935 -0.044404 0.029350 0.023180 -0.016204 -0.006764 -0.022164 -0.001866 0.036225 0.011406 0.025084 0.029169 -0.023631 0.001316 0.031267 0.016629 -0.005316 -0.013133 0.070026 -0.041192 -0.010559 0.024608 -0.006393 0.010701 0.022008 0.001185 0.034826 -0.008895 -0.001544 -0.019910 0.025554 -0.010335 -0.051181 0.020640 -0.043105 0.000426 -0.013800 -0.017088 0.032890 0.014325 0.012279 -0.009480 0.033118 0.052534 0.008282 -0.019797 0.032345 -0.037846 0.020243 -0.004188 0.036705 0.014276 0.036129 0.028615 0.029547 0.016375 0.021289 -0.015227 0.007823 0.010747 -0.028697 -0.006533 0.013271 0.006820 0.008348 0.008855 -0.004448 0.074571 -0.018295 0.063513 -0.041238 -0.030270 -0.006367 0.043864 0.042737 -0.060454 0.034001 0.023237 -0.011194 0.008246 -0.010874 -0.040929 -0.008271 0.008770 -0.005525 -0.015922 0.044872 0.027129 -0.006076 -0.007232 -0.026517 0.010829 0.006516 -0.014830 0.035601 -0.013695 -0.014748 -0.012958 -0.027952 0.036353 -0.028613 -0.017201 0.028646 0.015143 0.013674 0.042383 -0.044144 -0.019675 -0.002788 -0.018753 -0.017732 -0.055934 0.013441 -0.040670 0.007307 0.000116 -0.012240 -0.001938 0.016719 -0.002267 0.020513 -0.029923 0.007456 0.037096 0.023955 0.006876 0.034621 0.038715 0.005604 -0.009776 0.034165 -0.024992 -0.002983 -0.009312 -0.008946 0.004916 -0.007361 -0.044530 -0.014395 0.016690 -0.012555 -0.025655 -0.022830 0.003879 -0.020510 -0.020471 -0.009101 -0.020575 -0.018305 -0.001813 -0.037561 0.016657 0.016111 -0.004246 -0.033152 -0.006662 0.035226 -0.024967 
the -0.065738 -0.080490 0.002361 0.001503 -0.009825 -0.094452 -0.035516 0.017628 0.031672 0.049404 0.015249 -0.021702 0.011905 -0.029322 -0.010525 -0.016653 -0.084897 0.113416 0.060399 -0.033444 -0.013655 0.055581 0.057726 -0.029091 -0.020863 -0.031795 -0.093263 0.040334 0.050507 0.015618 0.013570 -0.097857 -0.014233 0.103201 0.009343 -0.039370 0.008718 -0.024664 0.049890 0.020579 0.006969 0.053685 -0.063836 -0.096055 0.060747 0.046174 -0.033437 -0.019621 -0.044084 -0.001096 0.077761 0.028430 0.056671 0.064995 -0.056709 0.003301 0.068011 0.042430 -0.013735 -0.027794 0.147551 -0.085261 -0.021957 0.054927 -0.019397 0.023897 0.045017 0.002583 0.074483 -0.016578 0.000993 -0.049504 0.054804 -0.017761 -0.115978 0.050259 -0.090853 -0.003917 -0.024335 -0.032436 0.066983 0.027438 0.023305 -0.027823 0.066254 0.110146 0.018358 -0.036160 0.067713 -0.074732 0.045475 -0.009943 0.077002 0.032048 0.074934 0.067559 0.067974 0.037221 0.045827 -0.036703 0.022125 0.022582 -0.064925 -0.017018 0.026704 0.015710 0.014307 0.025102 -0.009969 0.154537 -0.036262 0.133595 -0.089045 -0.062290 -0.010767 0.089586 0.090020 -0.123556 0.066717 0.053555 -0.018682 0.013951 -0.021349 -0.087645 -0.015249 0.022378 -0.015848 -0.037510 0.091598 0.062664 -0.009330 -0.014755 -0.056198 0.018708 0.009846 -0.037776 0.081154 -0.030036 -0.034613 -0.028450 -0.064076 0.075773 -0.053620 -0.039599 0.058097 0.035790 0.030068 0.092409 -0.099254 -0.038239 -0.013497 -0.038377 -0.037145 -0.117743 0.035020 -0.085727 0.019345 -0.005883 -0.025373 0.002339 0.033554 -0.005286 0.039398 -0.062382 0.010615 0.073171 0.054515 0.015138 0.075091 0.082408 0.011159 -0.025493 0.078215 -0.049284 -0.004036 -0.017051 -0.018657 0.017451 -0.015429 -0.091091 -0.032061 0.031638 -0.023045 -0.048413 -0.052002 0.007158 -0.042981 -0.043989 -0.016102 -0.041610 -0.036666 -0.004327 -0.079671 0.029036 0.033574 -0.011827 -0.071739 -0.014907 0.072751 -0.051949 
to -0.027304 -0.038494 0.002194 -0.000820 -0.005853 -0.044339 -0.017977 0.006131 0.015098 0.024529 0.005888 -0.009377 0.002578 -0.011641 -0.004322 -0.008743 -0.037588 0.053577 0.025237 -0.014822 -0.006017 0.024367 0.027243 -0.012556 -0.008639 -0.013275 -0.044094 0.020410 0.020737 0.007800 0.008494 -0.042826 -0.008811 0.047604 0.006259 -0.016660 0.005595 -0.011147 0.025016 0.008853 0.003645 0.026851 -0.032047 -0.043246 0.027604 0.024851 -0.018066 -0.008729 -0.018710 -0.000345 0.037850 0.012793 0.026616 0.029401 -0.025590 0.003754 0.032555 0.020056 -0.008107 -0.014301 0.066723 -0.039861 -0.011703 0.022449 -0.009317 0.012871 0.021239 -0.001235 0.032773 -0.006773 0.000110 -0.019910 0.023812 -0.009186 -0.054029 0.023169 -0.043290 -0.000024 -0.013495 -0.014009 0.029868 0.011389 0.013355 -0.010574 0.031312 0.051144 0.009233 -0.017419 0.033430 -0.033171 0.022921 -0.002652 0.034819 0.013287 0.033046 0.031336 0.031412 0.019192 0.020402 -0.015288 0.011612 0.011320 -0.028988 -0.007645 0.011398 0.009093 0.005455 0.008584 -0.002937 0.071861 -0.015225 0.060550 -0.040537 -0.027175 -0.004844 0.039896 0.042236 -0.058328 0.032078 0.024353 -0.006680 0.008364 -0.008303 -0.037874 -0.008617 0.011019 -0.005586 -0.018319 0.044689 0.030142 -0.006616 -0.004849 -0.025785 0.009129 0.003462 -0.016500 0.037060 -0.015860 -0.016717 -0.011364 -0.030183 0.037610 -0.027209 -0.020410 0.028293 0.018855 0.015317 0.045658 -0.047759 -0.018802 -0.007517 -0.017605 -0.019489 -0.055078 0.016051 -0.039668 0.008950 -0.004696 -0.010028 -0.000484 0.015227 -0.002642 0.019948 -0.030866 0.004371 0.033755 0.023636 0.004632 0.035037 0.037338 0.003798 -0.010793 0.033690 -0.025336 -0.004542 -0.008019 -0.009805 0.004900 -0.005452 -0.044483 -0.016255 0.015127 -0.008401 -0.025009 -0.025066 0.005070 -0.017678 -0.017618 -0.006158 -0.021504 -0.018511 -0.000998 -0.034257 0.016495 0.016434 -0.008233 -0.035122 -0.006206 0.032552 -0.021933 
I -0.083643 -0.109361 0.006265 -0.002896 -0.013499 -0.131416 -0.046250 0.018762 0.045918 0.068092 0.018735 -0.034255 0.015908 -0.037791 -0.012615 -0.028320 -0.113750 0.152301 0.080057 -0.047186 -0.020239 0.071606 0.075108 -0.039545 -0.032842 -0.042803 -0.127370 0.053224 0.068678 0.025558 0.018821 -0.131445 -0.021226 0.135107 0.016260 -0.050095 0.014655 -0.039141 0.067153 0.028355 0.011455 0.075354 -0.088792 -0.132195 0.083877 0.063487 -0.048137 -0.026597 -0.060140 -0.004296 0.110634 0.034706 0.078177 0.082577 -0.075881 0.004376 0.093706 0.052707 -0.019222 -0.038190 0.203316 -0.114670 -0.032719 0.072208 -0.023550 0.033846 0.058352 0.003426 0.100052 -0.023757 0.003268 -0.066467 0.075504 -0.027762 -0.153963 0.064953 -0.120750 -0.000901 -0.037119 -0.044772 0.091795 0.037180 0.037667 -0.032904 0.086667 0.148538 0.021971 -0.049638 0.091813 -0.105253 0.061742 -0.016683 0.108800 0.044341 0.103265 0.092768 0.092656 0.053297 0.067118 -0.047575 0.031213 0.027539 -0.084312 -0.024395 0.034876 0.018682 0.023616 0.032253 -0.009507 0.213428 -0.050326 0.180344 -0.118576 -0.084604 -0.016690 0.122970 0.120951 -0.173318 0.092257 0.072684 -0.026888 0.022705 -0.028896 -0.120910 -0.021817 0.028053 -0.017558 -0.050447 0.125761 0.082957 -0.014942 -0.021848 -0.074975 0.026121 0.016259 -0.051571 0.108086 -0.043218 -0.050327 -0.038037 -0.087119 0.103462 -0.077415 -0.056049 0.076276 0.048957 0.039113 0.129348 -0.135585 -0.052457 -0.014231 -0.055076 -0.053494 -0.162103 0.048148 -0.115201 0.025762 -0.006730 -0.032817 0.002985 0.045733 -0.008821 0.058855 -0.090048 0.018342 0.105899 0.074254 0.020089 0.098953 0.110933 0.012741 -0.036996 0.102686 -0.070089 -0.006540 -0.020717 -0.024707 0.018890 -0.016665 -0.123404 -0.043584 0.040313 -0.031623 -0.068432 -0.070204 0.009597 -0.057533 -0.056946 -0.026427 -0.057869 -0.052474 -0.005096 -0.104978 0.045055 0.043272 -0.018100 -0.097952 -0.016841 0.102849 -0.068587 
and -0.007525 -0.008321 -0.001107 -0.000941 0.000960 -0.006980 -0.002866 0.002451 0.002515 0.003754 -0.000799 -0.003697 0.001083 -0.003844 -0.002373 -0.003668 -0.005879 0.011720 0.004531 -0.001555 -0.001839 0.002481 0.002206 -0.002500 -0.003106 -0.002363 -0.009736 0.005222 0.003222 0.002314 0.003096 -0.008594 -0.003430 0.010321 0.001314 -0.001683 0.001105 -0.001161 0.006769 0.003040 -0.001034 0.004337 -0.004134 -0.009008 0.004197 0.006431 -0.003956 0.000796 -0.002616 0.001703 0.008880 0.000683 0.005316 0.007506 -0.006152 0.001120 0.003625 0.005981 -0.003333 -0.001258 0.013502 -0.008775 -0.000675 0.004654 -0.004009 0.000480 0.003666 0.001326 0.005858 -0.001282 0.002659 -0.006134 0.006562 -0.003113 -0.011985 0.006054 -0.009558 -0.000500 -0.004669 -0.004716 0.007628 0.003274 0.000068 -0.001502 0.008124 0.010111 -0.000879 -0.005072 0.007527 -0.008587 0.005104 0.000841 0.009222 0.003342 0.005066 0.007802 0.003456 0.002484 0.006293 -0.001404 0.000713 0.000268 -0.005211 -0.000061 0.003493 0.002775 0.003781 0.002594 -0.003404 0.014927 -0.004380 0.012056 -0.005433 -0.006570 0.000819 0.007604 0.006746 -0.012699 0.005675 0.006872 -0.000412 -0.000286 -0.000259 -0.009058 -0.001885 0.003768 -0.002658 -0.003361 0.006486 0.004520 0.001397 -0.001919 -0.006508 0.001904 0.002040 -0.001976 0.007637 -0.003692 -0.004138 -0.001339 -0.003271 0.008576 -0.007259 -0.003813 0.002693 0.003615 0.000890 0.008723 -0.006836 -0.003434 -0.001669 -0.005167 -0.002859 -0.012215 0.003253 -0.005400 0.003150 0.001292 -0.000739 -0.000040 0.002719 -0.001812 0.003744 -0.006759 -0.000047 0.007942 0.004429 -0.000818 0.006977 0.007573 -0.000334 -0.004386 0.004127 -0.003248 -0.001055 -0.001076 -0.003127 0.003197 -0.003748 -0.009675 -0.003732 0.002782 -0.000306 -0.004167 -0.004332 0.001747 -0.002540 -0.006632 -0.001926 -0.002688 -0.001356 0.000828 -0.006180 0.004107 0.002996 -0.001596 -0.007063 0.000110 0.007512 -0.003660 
in -0.045612 -0.057329 0.004063 0.000711 -0.010748 -0.069420 -0.025337 0.009314 0.024363 0.037340 0.011468 -0.015804 0.010233 -0.021711 -0.004988 -0.015070 -0.060750 0.080568 0.042888 -0.026904 -0.012947 0.038391 0.040269 -0.021567 -0.014596 -0.022443 -0.069030 0.031174 0.035099 0.013325 0.010489 -0.070607 -0.009559 0.074297 0.009199 -0.025010 0.005295 -0.021699 0.037189 0.015114 0.008716 0.040848 -0.046388 -0.071924 0.043869 0.034360 -0.025449 -0.013618 -0.032351 -0.001897 0.060279 0.017014 0.042286 0.046548 -0.038630 0.001593 0.047695 0.029246 -0.010318 -0.019971 0.107865 -0.062692 -0.014783 0.040924 -0.011528 0.016787 0.031544 -0.000409 0.052333 -0.014171 0.002242 -0.032669 0.037370 -0.014018 -0.080569 0.035279 -0.064970 -0.000479 -0.018515 -0.023113 0.051149 0.020718 0.020863 -0.020794 0.047000 0.076192 0.012476 -0.027632 0.050680 -0.054837 0.033209 -0.007872 0.059037 0.024877 0.056167 0.048324 0.050686 0.028797 0.036581 -0.024741 0.016891 0.015427 -0.046958 -0.014496 0.019814 0.012259 0.009915 0.015838 -0.007987 0.111736 -0.026860 0.096409 -0.065939 -0.043936 -0.009174 0.064074 0.063042 -0.093221 0.047486 0.041883 -0.015400 0.010669 -0.014745 -0.065195 -0.014323 0.013893 -0.010633 -0.028811 0.065484 0.043463 -0.007226 -0.009582 -0.042870 0.013789 0.009025 -0.025181 0.056909 -0.025090 -0.024559 -0.020642 -0.044347 0.056153 -0.039506 -0.030537 0.040405 0.024863 0.020912 0.070926 -0.073949 -0.029514 -0.011073 -0.027160 -0.026057 -0.087974 0.026203 -0.059311 0.012969 -0.005611 -0.016283 -0.000224 0.025853 -0.004675 0.032589 -0.049755 0.008219 0.055312 0.037526 0.012657 0.055696 0.058484 0.009531 -0.018072 0.058222 -0.038157 -0.003017 -0.010512 -0.012631 0.013524 -0.012227 -0.063804 -0.026515 0.023672 -0.017191 -0.034090 -0.038981 0.004935 -0.030738 -0.030388 -0.010428 -0.034306 -0.029242 -0.000945 -0.053691 0.021669 0.024753 -0.008814 -0.049402 -0.011983 0.055389 -0.038544 
is -0.050182 -0.064661 0.004691 -0.001904 -0.007115 -0.076959 -0.029040 0.012537 0.024346 0.036193 0.010649 -0.020986 0.005730 -0.024187 -0.007239 -0.015296 -0.067943 0.091261 0.045615 -0.030520 -0.011263 0.044996 0.043296 -0.021230 -0.019093 -0.020502 -0.074518 0.032269 0.037938 0.013611 0.010936 -0.075256 -0.013033 0.082255 0.005638 -0.030674 0.009396 -0.019441 0.036472 0.015151 0.008028 0.042162 -0.052631 -0.074575 0.044786 0.039334 -0.028978 -0.016028 -0.034247 -0.004065 0.060079 0.021317 0.042470 0.048454 -0.045640 0.004588 0.054483 0.031682 -0.012497 -0.021049 0.118490 -0.065996 -0.016052 0.043465 -0.016649 0.019273 0.031872 0.001742 0.060017 -0.015707 0.000876 -0.036258 0.040145 -0.015616 -0.090613 0.038367 -0.071831 -0.000955 -0.021736 -0.027531 0.054355 0.019018 0.018553 -0.019556 0.052653 0.086756 0.012526 -0.031087 0.053517 -0.057963 0.038262 -0.010029 0.062339 0.027063 0.060842 0.055896 0.054607 0.031294 0.037866 -0.030530 0.015031 0.016728 -0.048716 -0.015055 0.021888 0.009796 0.011717 0.019515 -0.007623 0.123977 -0.031054 0.106029 -0.068871 -0.046732 -0.011806 0.072357 0.069076 -0.097577 0.053206 0.044754 -0.016824 0.010370 -0.020319 -0.070540 -0.014698 0.017852 -0.011325 -0.029104 0.073807 0.051495 -0.008035 -0.009653 -0.044889 0.015517 0.008971 -0.030958 0.063157 -0.023906 -0.026803 -0.022246 -0.050239 0.060966 -0.044284 -0.033189 0.044951 0.027082 0.022345 0.073543 -0.079379 -0.027897 -0.007913 -0.028532 -0.028312 -0.095553 0.027820 -0.067584 0.011987 -0.005137 -0.018721 0.000088 0.028381 -0.001675 0.031393 -0.053144 0.010126 0.060682 0.042505 0.010574 0.056636 0.063205 0.008126 -0.022318 0.062680 -0.042458 -0.004778 -0.013577 -0.015212 0.013646 -0.012676 -0.072852 -0.023645 0.025451 -0.016836 -0.040235 -0.040789 0.002384 -0.034451 -0.032858 -0.011607 -0.032477 -0.031560 -0.002450 -0.059951 0.026162 0.024623 -0.009380 -0.058699 -0.011907 0.059147 -0.037658 
with -0.021404 -0.024195 -0.000694 -0.001708 -0.004559 -0.028292 -0.008682 0.006427 0.009900 0.016361 0.005408 -0.007190 0.004669 -0.009951 -0.003166 -0.008050 -0.025640 0.034240 0.019279 -0.011372 -0.002607 0.014355 0.015803 -0.010350 -0.005183 -0.009462 -0.030047 0.012590 0.013996 0.006707 0.006038 -0.027957 -0.002695 0.030303 0.002138 -0.010556 0.003677 -0.006602 0.016592 0.005809 0.003333 0.018151 -0.018081 -0.030538 0.019108 0.015721 -0.010262 -0.007762 -0.014723 -0.002466 0.023067 0.007948 0.018487 0.017860 -0.018435 0.003449 0.022180 0.013461 -0.005051 -0.006697 0.046198 -0.027409 -0.005708 0.017850 -0.003865 0.006458 0.010558 -0.000197 0.019956 -0.004599 -0.000234 -0.014502 0.017273 -0.004780 -0.035211 0.016452 -0.025513 0.001102 -0.009081 -0.011302 0.018992 0.007516 0.006684 -0.005840 0.021475 0.031186 0.004895 -0.013751 0.018888 -0.020268 0.012608 -0.004209 0.023001 0.008512 0.020906 0.019341 0.021082 0.008677 0.013281 -0.011515 0.007515 0.006953 -0.018879 -0.003981 0.005404 0.003208 0.004679 0.009623 -0.000536 0.049033 -0.011163 0.041660 -0.026971 -0.018665 -0.001691 0.027266 0.027954 -0.035435 0.020317 0.016247 -0.005890 0.006618 -0.005660 -0.028201 -0.007781 0.004836 -0.005206 -0.013656 0.029142 0.019222 -0.005454 -0.003096 -0.017758 0.004290 0.002026 -0.012072 0.023318 -0.008130 -0.012910 -0.008209 -0.016914 0.024932 -0.017210 -0.011262 0.016331 0.009835 0.011068 0.028836 -0.031575 -0.010963 -0.001291 -0.013156 -0.009711 -0.034203 0.011520 -0.026749 0.006087 0.000445 -0.004850 -0.001781 0.012888 -0.000072 0.012066 -0.019956 0.000996 0.024161 0.015926 0.003179 0.023322 0.021995 0.002218 -0.008988 0.021282 -0.015671 0.000109 -0.007523 -0.006109 0.002125 -0.003572 -0.024578 -0.011478 0.011066 -0.004805 -0.016094 -0.016928 0.001509 -0.013443 -0.012613 -0.005754 -0.013195 -0.013413 -0.000934 -0.025147 0.011830 0.008699 -0.004431 -0.019817 -0.007095 0.021618 -0.015371 
Ben. -0.031820 -0.039890 0.000351 -0.001639 -0.005570 -0.043354 -0.014893 0.008321 0.016570 0.023098 0.008797 -0.011045 0.004920 -0.015949 -0.004533 -0.008522 -0.039023 0.055502 0.026765 -0.018177 -0.008076 0.027623 0.028389 -0.014792 -0.012082 -0.012036 -0.042563 0.020191 0.023590 0.005975 0.007692 -0.044104 -0.005899 0.050994 0.004851 -0.017119 0.005633 -0.014083 0.022588 0.009070 0.006613 0.027656 -0.030005 -0.044691 0.030123 0.021292 -0.015642 -0.009748 -0.023208 -0.002480 0.035405 0.011401 0.024762 0.027851 -0.028369 0.001044 0.032227 0.019836 -0.004785 -0.014140 0.069912 -0.037976 -0.010334 0.026721 -0.009476 0.012145 0.020517 0.000224 0.032981 -0.009572 -0.000176 -0.021705 0.024326 -0.011568 -0.052057 0.025227 -0.043557 0.000183 -0.012901 -0.016988 0.033776 0.012061 0.010749 -0.011365 0.033418 0.049983 0.010269 -0.017163 0.034394 -0.037787 0.022030 -0.006412 0.036379 0.016390 0.034201 0.034589 0.033581 0.016269 0.020503 -0.018401 0.010387 0.008769 -0.032476 -0.010297 0.012747 0.009275 0.009870 0.010865 -0.002884 0.074194 -0.016783 0.064063 -0.041904 -0.030394 -0.007780 0.041532 0.043899 -0.057871 0.031917 0.024219 -0.009329 0.007349 -0.009812 -0.041354 -0.009100 0.008978 -0.007750 -0.018500 0.044098 0.029775 -0.007139 -0.006628 -0.029016 0.006266 0.004512 -0.015966 0.036265 -0.013778 -0.017993 -0.013273 -0.031806 0.039156 -0.026323 -0.020902 0.025648 0.018948 0.013479 0.043930 -0.044467 -0.017394 -0.006093 -0.020531 -0.016570 -0.055527 0.016263 -0.041929 0.007609 -0.002346 -0.009578 -0.001160 0.015748 -0.001781 0.020962 -0.032242 0.006012 0.036778 0.023033 0.004550 0.035654 0.038134 0.003477 -0.011753 0.038077 -0.026171 -0.004705 -0.009595 -0.007221 0.007244 -0.007349 -0.042882 -0.017834 0.012060 -0.008828 -0.024312 -0.025390 0.003724 -0.017820 -0.018610 -0.008582 -0.019731 -0.020358 -0.002945 -0.038796 0.015664 0.012592 -0.007719 -0.034789 -0.004636 0.035222 -0.024015 
you -0.022660 -0.025973 0.002940 -0.002581 -0.003437 -0.033509 -0.008564 0.005455 0.012627 0.017911 0.006747 -0.010014 0.002220 -0.011445 -0.005369 -0.009234 -0.031404 0.037089 0.020571 -0.014135 -0.003730 0.018787 0.019794 -0.008085 -0.005207 -0.010434 -0.029945 0.012871 0.018705 0.003898 0.003291 -0.034896 -0.002668 0.036045 0.001160 -0.009829 0.001330 -0.011562 0.016606 0.003930 0.003549 0.021005 -0.019527 -0.033680 0.019925 0.015469 -0.010643 -0.004512 -0.014509 -0.002961 0.024380 0.009666 0.021002 0.020545 -0.020761 0.001204 0.024746 0.015845 -0.006925 -0.011744 0.050460 -0.031005 -0.006214 0.016091 -0.005774 0.010029 0.015900 -0.000925 0.026816 -0.005320 0.000891 -0.013792 0.018454 -0.004168 -0.038316 0.015436 -0.028424 -0.002350 -0.011146 -0.013717 0.021602 0.008930 0.006600 -0.009390 0.020697 0.033907 0.002912 -0.012718 0.024997 -0.026703 0.017909 -0.001369 0.026183 0.012567 0.026231 0.022684 0.021041 0.013532 0.013772 -0.011970 0.008703 0.005527 -0.022054 -0.007761 0.009011 0.005777 0.006551 0.009844 -0.004081 0.054575 -0.011480 0.044688 -0.030922 -0.019290 -0.002974 0.029843 0.029636 -0.042338 0.022172 0.019687 -0.004159 0.004704 -0.007846 -0.030809 -0.006521 0.007175 -0.005670 -0.013950 0.029045 0.021087 -0.001787 -0.006058 -0.017536 0.006675 0.004022 -0.012445 0.028389 -0.010981 -0.012787 -0.007874 -0.021480 0.025422 -0.020251 -0.014595 0.016720 0.014457 0.011321 0.033626 -0.035411 -0.011388 -0.003243 -0.013281 -0.014706 -0.040206 0.011220 -0.027770 0.005142 0.000203 -0.008576 -0.000818 0.009296 0.000110 0.012988 -0.021935 0.004904 0.026623 0.016873 0.004843 0.026863 0.028808 0.003762 -0.006441 0.028227 -0.016196 -0.003380 -0.005479 -0.004133 0.005874 -0.003462 -0.029216 -0.010740 0.011297 -0.010337 -0.017279 -0.018520 0.000329 -0.016147 -0.014432 -0.006357 -0.017093 -0.014466 -0.001637 -0.023335 0.009256 0.009553 -0.002868 -0.023023 -0.004400 0.025768 -0.016786 
that -0.031893 -0.035564 0.001595 -0.001155 -0.005314 -0.043629 -0.015640 0.005436 0.017874 0.021947 0.008579 -0.010448 0.002589 -0.014150 -0.006275 -0.008191 -0.039687 0.055187 0.025943 -0.016848 -0.007307 0.024134 0.026216 -0.015061 -0.008818 -0.015201 -0.042581 0.019273 0.024413 0.007470 0.007252 -0.044082 -0.007335 0.045735 0.006641 -0.019354 0.002529 -0.011285 0.024003 0.010605 0.001731 0.027403 -0.029629 -0.047381 0.029147 0.021522 -0.014630 -0.009615 -0.019863 -0.002142 0.039542 0.010128 0.027157 0.032119 -0.027527 -0.000310 0.029475 0.017204 -0.004808 -0.013427 0.071837 -0.038394 -0.013159 0.026726 -0.007157 0.013701 0.022729 -0.000234 0.035872 -0.008384 -0.000676 -0.020495 0.023152 -0.010842 -0.051575 0.024469 -0.043095 -0.000664 -0.014390 -0.017612 0.030714 0.013319 0.010363 -0.010718 0.032320 0.052393 0.008659 -0.018944 0.030627 -0.034526 0.022326 -0.003321 0.034871 0.014310 0.033437 0.033186 0.029871 0.018060 0.022442 -0.016183 0.010176 0.008353 -0.030370 -0.009438 0.010945 0.005320 0.009869 0.012498 -0.006189 0.075802 -0.015564 0.062778 -0.040860 -0.028229 -0.003411 0.044221 0.044355 -0.061424 0.033319 0.027334 -0.009695 0.006590 -0.009226 -0.041392 -0.009275 0.010172 -0.005523 -0.019841 0.043988 0.032137 -0.004867 -0.007927 -0.027685 0.009000 0.004252 -0.014901 0.038064 -0.016808 -0.017433 -0.014646 -0.028497 0.034243 -0.027548 -0.017697 0.025275 0.016857 0.013010 0.043355 -0.047835 -0.018310 -0.007379 -0.017720 -0.017249 -0.055811 0.016817 -0.039925 0.008984 -0.002829 -0.009525 0.001786 0.014969 -0.003531 0.018810 -0.031533 0.003797 0.037505 0.025296 0.009534 0.036569 0.040617 0.004358 -0.010857 0.038007 -0.022404 -0.003742 -0.006451 -0.008025 0.006117 -0.007598 -0.040952 -0.014716 0.014738 -0.012461 -0.022001 -0.022676 0.004390 -0.017450 -0.019148 -0.010249 -0.021817 -0.017600 -0.000202 -0.035457 0.014455 0.015092 -0.005246 -0.035979 -0.005194 0.034991 -0.025082 
his -0.046188 -0.055989 0.000781 0.000210 -0.006956 -0.066708 -0.022532 0.013653 0.022117 0.034898 0.012473 -0.014774 0.005606 -0.020850 -0.005007 -0.014351 -0.059190 0.080157 0.042779 -0.025761 -0.010163 0.040103 0.041243 -0.021636 -0.016781 -0.021329 -0.066309 0.028068 0.036387 0.012260 0.011336 -0.065992 -0.009931 0.072649 0.005322 -0.024276 0.007407 -0.020854 0.036282 0.013170 0.004165 0.035246 -0.042567 -0.068279 0.042110 0.032741 -0.026215 -0.015147 -0.030000 -0.001630 0.054439 0.016841 0.037501 0.043003 -0.037595 0.004322 0.044542 0.030440 -0.009098 -0.020118 0.100735 -0.060854 -0.014526 0.039964 -0.014880 0.019656 0.027617 0.001089 0.052143 -0.013062 0.000386 -0.034462 0.038343 -0.015371 -0.079289 0.035765 -0.064131 -0.001037 -0.016753 -0.025031 0.046675 0.017199 0.017157 -0.017981 0.046502 0.076182 0.010039 -0.025078 0.049211 -0.052948 0.032316 -0.006945 0.052637 0.023178 0.051541 0.045218 0.047506 0.028498 0.032364 -0.026108 0.016517 0.015363 -0.043238 -0.013489 0.018206 0.008366 0.013008 0.017849 -0.004078 0.106680 -0.027529 0.094098 -0.059478 -0.042685 -0.005962 0.065028 0.060867 -0.087346 0.045785 0.039802 -0.012179 0.012756 -0.018165 -0.062115 -0.013709 0.017371 -0.009263 -0.025401 0.062737 0.045298 -0.009342 -0.011089 -0.036786 0.013511 0.007820 -0.024909 0.055760 -0.020661 -0.024338 -0.020930 -0.044547 0.053055 -0.040954 -0.029563 0.040230 0.025693 0.018269 0.067059 -0.066519 -0.026085 -0.007855 -0.027510 -0.025750 -0.085569 0.021595 -0.060021 0.012484 -0.006357 -0.018165 0.000841 0.026034 -0.004108 0.029911 -0.043414 0.006338 0.052458 0.038526 0.009381 0.050903 0.056499 0.008522 -0.017066 0.052616 -0.037308 -0.002943 -0.012195 -0.014494 0.012346 -0.008307 -0.061467 -0.021439 0.019828 -0.015056 -0.035860 -0.036071 0.001952 -0.027871 -0.030471 -0.010711 -0.028682 -0.026791 -0.001487 -0.053562 0.024221 0.023261 -0.008462 -0.049689 -0.007265 0.053357 -0.035707 
Samp. -0.041933 -0.049906 0.003585 -0.000212 -0.009587 -0.064790 -0.021506 0.011992 0.024129 0.032278 0.008371 -0.017266 0.007831 -0.018567 -0.007009 -0.012228 -0.053845 0.074242 0.040017 -0.021028 -0.010574 0.034687 0.034383 -0.018879 -0.015073 -0.021523 -0.062705 0.027910 0.033526 0.010919 0.007487 -0.062701 -0.009691 0.068284 0.004509 -0.022383 0.008411 -0.017313 0.030248 0.012426 0.007729 0.034506 -0.039098 -0.063578 0.038672 0.034620 -0.021895 -0.014238 -0.028988 -0.002651 0.052519 0.018927 0.037657 0.039029 -0.034937 0.000610 0.042582 0.024296 -0.010822 -0.019686 0.095575 -0.055755 -0.017227 0.034639 -0.010919 0.018200 0.025825 0.000077 0.049351 -0.014664 -0.000781 -0.029971 0.035861 -0.011316 -0.074457 0.030607 -0.057495 -0.003918 -0.017453 -0.019898 0.046057 0.019206 0.018958 -0.014053 0.039556 0.069689 0.010590 -0.025326 0.041720 -0.047148 0.027116 -0.009391 0.053012 0.021015 0.049866 0.042603 0.044339 0.025703 0.032132 -0.025889 0.015875 0.012105 -0.043888 -0.010307 0.016528 0.011647 0.009895 0.015831 -0.006093 0.099248 -0.022536 0.088461 -0.059813 -0.041680 -0.005722 0.058355 0.057615 -0.081530 0.047007 0.036342 -0.014124 0.010511 -0.015742 -0.058206 -0.012311 0.013982 -0.006959 -0.023986 0.062633 0.040263 -0.004959 -0.011328 -0.033902 0.011045 0.006977 -0.024823 0.052552 -0.023289 -0.021603 -0.017384 -0.040872 0.051705 -0.035608 -0.027054 0.036124 0.020389 0.017278 0.060051 -0.065675 -0.024317 -0.009485 -0.025854 -0.026294 -0.078909 0.019764 -0.054265 0.013940 -0.005202 -0.015133 -0.001415 0.022111 -0.001619 0.027831 -0.041384 0.005918 0.047566 0.032595 0.008825 0.049623 0.055598 0.007943 -0.016920 0.051268 -0.034103 -0.004667 -0.012956 -0.011504 0.012415 -0.010524 -0.059548 -0.019478 0.018946 -0.014955 -0.032280 -0.035209 0.003473 -0.026822 -0.030473 -0.010746 -0.028850 -0.023449 -0.004744 -0.049128 0.018599 0.022821 -0.008940 -0.046495 -0.007532 0.049095 -0.032866 
a -0.046577 -0.060304 0.003223 0.000825 -0.006450 -0.072262 -0.027271 0.011026 0.022896 0.037160 0.012705 -0.018139 0.008652 -0.020937 -0.005991 -0.012100 -0.063922 0.086150 0.044107 -0.029365 -0.010655 0.042948 0.042948 -0.022321 -0.019774 -0.024288 -0.070502 0.030517 0.037398 0.012638 0.011112 -0.076930 -0.013283 0.075703 0.009085 -0.029133 0.005779 -0.019073 0.039308 0.015324 0.007435 0.039510 -0.046836 -0.073107 0.044611 0.036248 -0.026587 -0.012950 -0.034069 -0.002582 0.062678 0.020174 0.042030 0.049922 -0.039518 0.004915 0.051726 0.028544 -0.013846 -0.019765 0.115069 -0.064782 -0.019842 0.043301 -0.014199 0.018496 0.033017 0.000883 0.055665 -0.012197 0.002865 -0.037045 0.039234 -0.015452 -0.086846 0.037506 -0.069233 -0.002682 -0.018406 -0.024733 0.054684 0.019394 0.021875 -0.021496 0.047701 0.084625 0.014455 -0.027175 0.049620 -0.057109 0.032398 -0.008185 0.058947 0.025307 0.055913 0.049421 0.051623 0.029209 0.038616 -0.027223 0.018260 0.016934 -0.047461 -0.014496 0.020309 0.010300 0.014069 0.019679 -0.008754 0.119187 -0.026953 0.099060 -0.067887 -0.045312 -0.008130 0.071069 0.069682 -0.095821 0.051937 0.042884 -0.012751 0.010664 -0.017100 -0.066570 -0.012281 0.017238 -0.008686 -0.028506 0.068300 0.047965 -0.006664 -0.013368 -0.043618 0.013075 0.006711 -0.027727 0.060374 -0.025437 -0.027385 -0.019758 -0.051055 0.057953 -0.044695 -0.030575 0.045023 0.024805 0.023942 0.070442 -0.072725 -0.030956 -0.008903 -0.031034 -0.029172 -0.090331 0.026489 -0.062562 0.011655 -0.004868 -0.015662 -0.000746 0.027079 -0.004582 0.031223 -0.051670 0.011145 0.059488 0.042779 0.009750 0.054344 0.060256 0.008732 -0.019582 0.056673 -0.037421 -0.005322 -0.012326 -0.015933 0.010731 -0.010413 -0.068205 -0.027383 0.022766 -0.020064 -0.040613 -0.041872 0.005640 -0.032874 -0.033699 -0.012330 -0.031452 -0.027468 -0.003379 -0.061768 0.026387 0.023446 -0.011097 -0.054219 -0.008356 0.056392 -0.040371 
not -0.025215 -0.033560 0.002526 0.001633 -0.006050 -0.041437 -0.013037 0.009098 0.015354 0.019501 0.008297 -0.010218 0.003113 -0.012258 -0.005895 -0.009466 -0.038290 0.048529 0.024899 -0.015506 -0.005890 0.021790 0.021361 -0.009902 -0.009435 -0.013447 -0.037711 0.018792 0.018556 0.005623 0.004689 -0.042114 -0.004996 0.045116 0.003453 -0.016518 0.003231 -0.010968 0.022785 0.007863 0.003095 0.020947 -0.026034 -0.039036 0.024351 0.021089 -0.017524 -0.007109 -0.017775 -0.001576 0.032377 0.013158 0.022379 0.026209 -0.025942 0.002028 0.026925 0.017256 -0.008660 -0.010926 0.064454 -0.034515 -0.008416 0.025522 -0.007181 0.007989 0.017474 0.000319 0.031503 -0.007311 0.000713 -0.021353 0.021002 -0.007141 -0.050010 0.019907 -0.037856 -0.002321 -0.011930 -0.015156 0.030769 0.014448 0.011664 -0.012135 0.029651 0.045832 0.006624 -0.015236 0.030378 -0.032534 0.021179 -0.003112 0.033693 0.014121 0.034079 0.030168 0.028327 0.013245 0.023124 -0.015262 0.011040 0.009262 -0.025547 -0.007088 0.012311 0.004169 0.005440 0.008040 -0.001570 0.068614 -0.016951 0.056102 -0.035635 -0.027126 -0.004714 0.036003 0.038444 -0.054840 0.029669 0.020213 -0.007044 0.005482 -0.011676 -0.038215 -0.007784 0.007692 -0.005385 -0.018562 0.039800 0.028114 -0.006559 -0.009160 -0.025015 0.006942 0.005674 -0.017931 0.034715 -0.014446 -0.014450 -0.012125 -0.028672 0.032003 -0.022983 -0.016367 0.026178 0.014759 0.014859 0.038900 -0.041855 -0.014481 -0.007011 -0.015429 -0.015682 -0.052876 0.016568 -0.038588 0.006717 -0.002906 -0.008920 0.000327 0.015845 -0.002423 0.019579 -0.025182 0.005579 0.033238 0.025373 0.008273 0.031316 0.034641 0.005064 -0.010182 0.033255 -0.022121 -0.000693 -0.007977 -0.006089 0.006626 -0.003700 -0.037177 -0.014248 0.011012 -0.011638 -0.020938 -0.023078 0.002094 -0.018719 -0.021141 -0.008832 -0.018525 -0.015508 -0.002996 -0.031325 0.014951 0.011617 -0.007709 -0.032186 -0.008078 0.034343 -0.024278 
me -0.022365 -0.029079 0.000618 -0.000484 -0.005757 -0.032907 -0.012496 0.005382 0.009655 0.015945 0.005483 -0.007774 0.003547 -0.010862 -0.001160 -0.004648 -0.030317 0.039550 0.019097 -0.012685 -0.005716 0.018158 0.020615 -0.009520 -0.010398 -0.011985 -0.034649 0.014403 0.017328 0.004632 0.004336 -0.033778 -0.005586 0.036902 0.004915 -0.012983 0.003860 -0.010020 0.016985 0.006905 0.002492 0.021044 -0.021129 -0.030940 0.020332 0.016776 -0.013892 -0.005529 -0.016471 0.000742 0.028792 0.007813 0.018934 0.019812 -0.017749 0.003612 0.021543 0.012535 -0.005388 -0.010166 0.049608 -0.031203 -0.007856 0.017455 -0.007103 0.007932 0.015152 0.002420 0.023667 -0.009363 -0.001241 -0.017700 0.018897 -0.007103 -0.040051 0.015614 -0.029461 -0.002253 -0.011335 -0.012420 0.023087 0.010760 0.010923 -0.010576 0.022964 0.038346 0.004145 -0.012318 0.024026 -0.024254 0.016081 -0.003743 0.029158 0.013155 0.023405 0.022476 0.022460 0.013060 0.019132 -0.012374 0.009524 0.006704 -0.022293 -0.007930 0.006675 0.005648 0.006433 0.010865 -0.000806 0.056187 -0.013393 0.046999 -0.029513 -0.021408 -0.003219 0.030617 0.031014 -0.045194 0.022642 0.019637 -0.008756 0.005435 -0.010084 -0.028006 -0.005704 0.007813 -0.006507 -0.012198 0.032169 0.023345 -0.001441 -0.005381 -0.018198 0.007681 0.002693 -0.013681 0.027703 -0.009887 -0.012250 -0.010995 -0.024046 0.026681 -0.019259 -0.016063 0.020586 0.014456 0.011785 0.030463 -0.031244 -0.013496 -0.001508 -0.015285 -0.012613 -0.043014 0.009823 -0.028136 0.005703 0.000188 -0.005563 -0.000196 0.014183 -0.000162 0.013917 -0.020964 0.004114 0.027758 0.018519 0.007032 0.023191 0.028748 0.004943 -0.009313 0.026271 -0.016871 0.000693 -0.007642 -0.009256 0.004359 -0.003960 -0.032572 -0.012527 0.009236 -0.010086 -0.015761 -0.020800 0.000769 -0.012764 -0.014610 -0.007221 -0.017966 -0.013867 -0.001799 -0.027837 0.010822 0.010267 -0.005225 -0.024592 -0.003798 0.026196 -0.016423 
Rom. -0.037040 -0.048237 0.003686 -0.001995 -0.004837 -0.054665 -0.022772 0.008670 0.018470 0.027947 0.011298 -0.014510 0.007186 -0.019421 -0.003890 -0.009795 -0.048822 0.066008 0.031901 -0.019029 -0.010123 0.029841 0.031162 -0.015357 -0.013520 -0.019983 -0.057146 0.022848 0.027951 0.010138 0.006314 -0.055444 -0.010259 0.061030 0.005016 -0.023452 0.004423 -0.014493 0.029949 0.013010 0.006216 0.031261 -0.035677 -0.058826 0.033515 0.029822 -0.022374 -0.012849 -0.027839 -0.002116 0.048508 0.016088 0.031622 0.039215 -0.032353 0.001870 0.041632 0.023349 -0.009725 -0.016224 0.086059 -0.048013 -0.015424 0.031401 -0.008431 0.012772 0.025280 0.001218 0.044372 -0.011016 0.002424 -0.027637 0.029947 -0.013355 -0.067938 0.030940 -0.051776 -0.003420 -0.013132 -0.019016 0.037438 0.013781 0.013212 -0.014744 0.037173 0.064174 0.009931 -0.022804 0.039477 -0.044492 0.024584 -0.008094 0.045394 0.017912 0.045352 0.038135 0.040120 0.020804 0.026207 -0.023253 0.011974 0.010284 -0.036432 -0.009389 0.015755 0.009188 0.009228 0.012038 -0.006132 0.091270 -0.022620 0.079158 -0.049992 -0.035704 -0.008780 0.055067 0.050815 -0.076560 0.038350 0.032528 -0.008836 0.009337 -0.014402 -0.049049 -0.010715 0.012719 -0.005691 -0.023699 0.053789 0.035439 -0.007638 -0.011351 -0.030570 0.010525 0.009161 -0.023915 0.046072 -0.020716 -0.018917 -0.014909 -0.035820 0.045168 -0.033680 -0.022516 0.034275 0.023236 0.017555 0.055378 -0.058393 -0.023431 -0.008045 -0.024827 -0.021791 -0.071061 0.018881 -0.051291 0.011265 -0.003503 -0.013028 0.000930 0.019601 -0.001087 0.022344 -0.039587 0.007709 0.045407 0.033654 0.010427 0.045556 0.046994 0.003637 -0.015071 0.045796 -0.030970 -0.000702 -0.010284 -0.011157 0.007197 -0.007267 -0.053957 -0.018366 0.017183 -0.011745 -0.031699 -0.032193 0.005935 -0.023555 -0.024490 -0.008363 -0.027026 -0.024411 -0.003266 -0.046922 0.018626 0.018374 -0.006109 -0.042176 -0.007758 0.043314 -0.027867 
my -0.066101 -0.084642 0.005740 0.000363 -0.012564 -0.104179 -0.038480 0.016105 0.034971 0.049213 0.014493 -0.025399 0.013651 -0.031984 -0.012396 -0.021763 -0.085451 0.118551 0.062607 -0.037535 -0.016295 0.058841 0.061258 -0.030429 -0.026330 -0.029846 -0.100072 0.044183 0.050141 0.016819 0.013928 -0.104565 -0.016052 0.105265 0.008435 -0.041274 0.008468 -0.028900 0.053252 0.020672 0.009675 0.059456 -0.068071 -0.103175 0.061566 0.054153 -0.034831 -0.018299 -0.046403 -0.002684 0.082606 0.028702 0.060721 0.064436 -0.058501 0.005146 0.069391 0.039302 -0.015097 -0.027867 0.154376 -0.088099 -0.022666 0.059454 -0.020113 0.027569 0.047119 0.004098 0.074943 -0.018272 0.003448 -0.052200 0.056828 -0.020140 -0.121773 0.048600 -0.092770 -0.003739 -0.028806 -0.034643 0.073079 0.030507 0.027383 -0.024265 0.070447 0.114399 0.017016 -0.039754 0.070139 -0.082432 0.049324 -0.012127 0.081247 0.033206 0.077734 0.072808 0.068639 0.038916 0.050323 -0.035295 0.020896 0.024301 -0.066183 -0.017716 0.028291 0.017583 0.016783 0.022898 -0.011047 0.165866 -0.040012 0.142198 -0.092778 -0.063724 -0.014540 0.096272 0.093634 -0.133413 0.074906 0.055840 -0.019799 0.018364 -0.025254 -0.093494 -0.020948 0.023936 -0.012032 -0.041415 0.094892 0.065690 -0.011952 -0.017457 -0.060942 0.021959 0.010260 -0.036878 0.086727 -0.036284 -0.038165 -0.027278 -0.066707 0.083411 -0.057728 -0.044890 0.060948 0.034787 0.029872 0.100654 -0.106814 -0.041559 -0.015233 -0.040868 -0.038556 -0.125676 0.034897 -0.088990 0.016852 -0.005098 -0.027093 0.002149 0.034321 -0.004756 0.046706 -0.070819 0.010422 0.080367 0.058896 0.014800 0.076727 0.084851 0.011043 -0.027218 0.080219 -0.052145 -0.003442 -0.014861 -0.019782 0.018050 -0.017336 -0.098057 -0.033754 0.033636 -0.023473 -0.054263 -0.057730 0.008941 -0.045722 -0.044439 -0.019791 -0.046491 -0.037586 -0.003824 -0.083448 0.033334 0.035882 -0.016814 -0.075952 -0.015887 0.079716 -0.055678 
Greg. -0.014390 -0.016749 0.001728 0.000364 -0.000097 -0.022243 -0.008432 0.001528 0.008495 0.013746 0.003457 -0.004108 0.001402 -0.007696 -0.004287 -0.006150 -0.019702 0.025022 0.013202 -0.008270 -0.003425 0.011000 0.012056 -0.004240 -0.006727 -0.007981 -0.021480 0.009105 0.011480 0.004683 0.003314 -0.024356 -0.006142 0.024568 0.000941 -0.006629 0.003395 -0.007930 0.012219 0.004268 0.003704 0.010681 -0.015514 -0.020298 0.011402 0.012196 -0.006897 -0.004907 -0.008514 -0.001685 0.017183 0.007054 0.014428 0.015448 -0.014070 0.001035 0.015495 0.010931 -0.001811 -0.008511 0.036416 -0.018952 -0.007102 0.013208 -0.004627 0.003634 0.009336 0.001525 0.016762 -0.004353 -0.000494 -0.012909 0.010211 -0.006781 -0.024598 0.009788 -0.019346 0.000621 -0.007531 -0.006147 0.015954 0.004451 0.006433 -0.008520 0.013319 0.027593 0.005248 -0.009608 0.017128 -0.020332 0.011638 -0.004954 0.016806 0.008742 0.016372 0.014896 0.018001 0.008048 0.009071 -0.007780 0.003995 0.006337 -0.014086 -0.005773 0.005446 0.004577 0.006352 0.006907 -0.000851 0.037408 -0.010627 0.032225 -0.022743 -0.012711 -0.002491 0.021923 0.019886 -0.031644 0.018147 0.012968 -0.006754 0.001838 -0.003125 -0.021376 -0.004043 0.005433 -0.000762 -0.010182 0.022231 0.014707 -0.003758 -0.005431 -0.014772 0.005880 0.002807 -0.009001 0.020052 -0.008343 -0.007911 -0.005101 -0.014453 0.017628 -0.012204 -0.008289 0.014052 0.007472 0.004825 0.022999 -0.021179 -0.006161 -0.002096 -0.011354 -0.008862 -0.029769 0.010219 -0.017891 0.006576 -0.003008 -0.006630 0.000471 0.007394 -0.001856 0.007469 -0.014075 0.001444 0.018256 0.014729 0.001571 0.015433 0.020140 0.003577 -0.004070 0.018729 -0.010577 0.000058 -0.005259 -0.005595 0.004448 -0.004896 -0.023804 -0.008494 0.008127 -0.004032 -0.010241 -0.010266 0.003338 -0.010296 -0.008973 -0.004014 -0.009994 -0.010856 -0.002578 -0.015943 0.005481 0.006752 -0.002031 -0.017685 -0.004715 0.020130 -0.013854 
The -0.020725 -0.024748 0.001414 -0.000594 -0.002820 -0.032705 -0.011509 0.003384 0.008716 0.017418 0.006656 -0.007570 0.005687 -0.011273 -0.002992 -0.004252 -0.028488 0.037373 0.018768 -0.009816 -0.006649 0.019303 0.018606 -0.011384 -0.006225 -0.008930 -0.031684 0.015561 0.015206 0.006732 0.004678 -0.033205 -0.005790 0.035192 0.004745 -0.013068 0.004567 -0.009772 0.016791 0.005136 0.004783 0.019694 -0.023354 -0.031037 0.020372 0.016531 -0.009957 -0.007094 -0.013259 0.000850 0.028514 0.008937 0.019582 0.022763 -0.018419 0.000922 0.022741 0.015668 -0.003360 -0.008442 0.049045 -0.025989 -0.006502 0.019585 -0.003942 0.008194 0.015387 0.000588 0.026889 -0.007165 -0.000582 -0.014617 0.019165 -0.006434 -0.036135 0.018120 -0.030775 0.000418 -0.007410 -0.013416 0.022962 0.007061 0.006293 -0.008983 0.021981 0.037421 0.003244 -0.010425 0.022494 -0.026566 0.016611 -0.003388 0.026837 0.008168 0.024147 0.024063 0.021635 0.011043 0.013869 -0.009883 0.005838 0.004908 -0.020165 -0.006372 0.009207 0.002136 0.003808 0.007537 -0.000123 0.053102 -0.014037 0.041868 -0.030147 -0.022465 -0.001850 0.029360 0.027510 -0.041801 0.020799 0.019524 -0.006408 0.003199 -0.007658 -0.027876 -0.008496 0.008726 -0.004326 -0.015005 0.029267 0.021914 -0.005499 -0.003629 -0.018930 0.007035 0.003942 -0.013176 0.027415 -0.010527 -0.014701 -0.010014 -0.019414 0.025669 -0.020129 -0.013609 0.017067 0.014289 0.008277 0.033296 -0.034825 -0.010124 -0.001774 -0.010680 -0.012558 -0.037266 0.012164 -0.029462 0.004950 -0.001466 -0.008632 0.000164 0.014296 0.000531 0.014799 -0.019286 0.005524 0.023673 0.020242 0.006188 0.025863 0.027579 0.002928 -0.007986 0.026075 -0.019356 0.000084 -0.007554 -0.004601 0.004976 -0.001873 -0.029032 -0.008897 0.009118 -0.010370 -0.017067 -0.016908 0.002138 -0.014003 -0.016187 -0.004638 -0.016457 -0.011752 -0.002021 -0.024116 0.013000 0.012305 -0.004640 -0.024358 -0.006047 0.027469 -0.017355 
it -0.017215 -0.023705 0.001013 -0.002632 -0.002821 -0.028607 -0.007902 0.002893 0.011232 0.012062 0.004061 -0.005797 0.005148 -0.009755 -0.000962 -0.006682 -0.024237 0.036052 0.018504 -0.012178 -0.005673 0.015990 0.017365 -0.008477 -0.005833 -0.006939 -0.027999 0.010263 0.015816 0.004429 0.004646 -0.030058 -0.006830 0.030132 0.000659 -0.009391 0.003479 -0.006717 0.015849 0.005571 0.004149 0.015397 -0.019940 -0.030157 0.019825 0.013726 -0.012245 -0.005881 -0.011684 -0.002574 0.024254 0.009113 0.018360 0.018997 -0.018397 0.003573 0.021278 0.012120 -0.003152 -0.010356 0.043500 -0.027326 -0.005581 0.016785 -0.006471 0.005269 0.011535 0.002991 0.022826 -0.004264 0.002667 -0.016314 0.016984 -0.006216 -0.032206 0.016578 -0.029314 -0.003240 -0.010065 -0.008404 0.018825 0.006383 0.009987 -0.007671 0.019120 0.032536 0.003248 -0.010392 0.021912 -0.020379 0.014609 -0.003222 0.025771 0.011529 0.021970 0.018938 0.020789 0.011335 0.016349 -0.011331 0.008063 0.006919 -0.017442 -0.003193 0.009323 0.003161 0.007247 0.009185 -0.004376 0.047144 -0.010861 0.040495 -0.026059 -0.020704 -0.001249 0.027390 0.024117 -0.039115 0.022130 0.017771 -0.003711 0.003597 -0.004416 -0.027707 -0.004768 0.005459 -0.003337 -0.013243 0.030141 0.020021 -0.004834 -0.006027 -0.019349 0.004627 0.002079 -0.012780 0.026393 -0.007359 -0.009854 -0.009196 -0.020199 0.025356 -0.016156 -0.011881 0.019447 0.011627 0.009027 0.025921 -0.028399 -0.009625 -0.000993 -0.013297 -0.013451 -0.036375 0.012342 -0.026911 0.004480 -0.001345 -0.006948 -0.000870 0.010358 0.000157 0.010062 -0.021092 0.002540 0.024538 0.014233 0.005491 0.020506 0.024510 0.004598 -0.005672 0.023992 -0.017553 -0.003024 -0.007431 -0.006156 0.002979 -0.003660 -0.026017 -0.009885 0.008004 -0.005822 -0.013158 -0.016787 0.000858 -0.012503 -0.012925 -0.006829 -0.012447 -0.009822 0.000745 -0.021163 0.010422 0.008908 -0.003406 -0.021017 -0.006228 0.023699 -0.014662 
your -0.048607 -0.059181 0.003363 0.001418 -0.006038 -0.074600 -0.026618 0.013079 0.026741 0.036047 0.010450 -0.016950 0.007726 -0.023093 -0.009497 -0.012618 -0.063106 0.083206 0.044141 -0.029636 -0.013172 0.041670 0.043666 -0.020422 -0.017892 -0.022613 -0.071745 0.030005 0.039379 0.011790 0.012321 -0.072582 -0.010136 0.079249 0.009694 -0.029846 0.006578 -0.018524 0.035536 0.015793 0.006806 0.041448 -0.048389 -0.074233 0.044309 0.036643 -0.024621 -0.015211 -0.032458 -0.001468 0.058346 0.017633 0.045178 0.046344 -0.043012 0.004675 0.048875 0.032414 -0.009466 -0.022074 0.111568 -0.066359 -0.017681 0.039937 -0.015146 0.020992 0.034861 0.002994 0.056898 -0.014111 0.000312 -0.038270 0.038597 -0.014996 -0.087000 0.038661 -0.068695 -0.003341 -0.020882 -0.024050 0.050577 0.022804 0.018324 -0.020433 0.052025 0.083908 0.011618 -0.029589 0.052842 -0.059448 0.037071 -0.007380 0.061710 0.025970 0.057464 0.049149 0.051044 0.029586 0.035482 -0.026491 0.015553 0.018639 -0.049258 -0.012326 0.021379 0.008588 0.013662 0.019346 -0.007344 0.119979 -0.029199 0.102429 -0.064579 -0.048236 -0.011183 0.069568 0.069143 -0.097092 0.049775 0.038932 -0.014298 0.010528 -0.017031 -0.067056 -0.013636 0.015983 -0.010544 -0.030431 0.067720 0.046289 -0.009159 -0.009824 -0.040636 0.013001 0.009748 -0.027733 0.061608 -0.023388 -0.026605 -0.022052 -0.049215 0.057754 -0.040566 -0.033889 0.042758 0.025034 0.021324 0.072147 -0.076884 -0.029513 -0.010236 -0.031230 -0.029659 -0.091855 0.027588 -0.065362 0.011211 -0.002933 -0.016624 0.000721 0.027419 -0.002849 0.034437 -0.050125 0.009385 0.056697 0.041385 0.012897 0.055889 0.059553 0.005302 -0.017940 0.058837 -0.039008 -0.006327 -0.012129 -0.012073 0.013893 -0.011932 -0.067246 -0.025917 0.021931 -0.015318 -0.037752 -0.041256 0.002165 -0.031117 -0.032564 -0.011607 -0.031143 -0.028015 -0.004175 -0.059783 0.025935 0.022341 -0.011614 -0.055158 -0.012296 0.055589 -0.038749 
thou -0.082380 -0.104588 0.002479 -0.000055 -0.012733 -0.122006 -0.042864 0.020547 0.042502 0.061741 0.019848 -0.031466 0.013567 -0.040395 -0.012619 -0.024963 -0.109101 0.144834 0.076690 -0.048443 -0.017949 0.071691 0.069645 -0.036978 -0.032416 -0.035282 -0.118167 0.051500 0.060571 0.024304 0.017541 -0.125758 -0.019446 0.127977 0.013664 -0.046136 0.010266 -0.034368 0.065254 0.026436 0.010540 0.071999 -0.081245 -0.124334 0.078280 0.062643 -0.046388 -0.024399 -0.060587 -0.001025 0.103611 0.035611 0.072093 0.081453 -0.072558 0.005868 0.087144 0.052453 -0.020805 -0.034238 0.191046 -0.109940 -0.026870 0.068999 -0.023045 0.034480 0.057873 0.002165 0.092760 -0.025281 0.002456 -0.061426 0.065741 -0.025491 -0.146931 0.061461 -0.115765 -0.005792 -0.032991 -0.042584 0.085065 0.032730 0.030338 -0.034227 0.083282 0.137871 0.022237 -0.049007 0.087246 -0.098185 0.061327 -0.013377 0.102096 0.041417 0.094161 0.089349 0.085701 0.049181 0.062005 -0.047907 0.029405 0.028384 -0.083470 -0.024564 0.029989 0.016465 0.020426 0.031540 -0.010859 0.197446 -0.046788 0.169667 -0.112969 -0.080259 -0.016542 0.115398 0.111472 -0.159471 0.089717 0.068557 -0.024513 0.021187 -0.029868 -0.110570 -0.021637 0.029516 -0.015067 -0.046507 0.118363 0.081942 -0.011598 -0.019221 -0.072998 0.021646 0.012621 -0.049276 0.104629 -0.042708 -0.047843 -0.034298 -0.084475 0.097558 -0.073106 -0.054818 0.072764 0.047447 0.038979 0.120203 -0.128171 -0.046095 -0.014952 -0.048765 -0.048811 -0.154579 0.043500 -0.109796 0.024135 -0.005896 -0.030713 0.002848 0.047136 -0.008176 0.055325 -0.081880 0.016993 0.095944 0.067839 0.019637 0.096852 0.106088 0.011080 -0.032620 0.099618 -0.068338 -0.007930 -0.021055 -0.023226 0.020416 -0.016291 -0.116161 -0.043122 0.041830 -0.027875 -0.065195 -0.067422 0.006012 -0.050683 -0.053677 -0.020196 -0.056095 -0.050053 -0.006001 -0.101861 0.038840 0.039401 -0.015966 -0.090775 -0.019190 0.096690 -0.064905 
will -0.027312 -0.038293 -0.000401 0.001410 -0.006300 -0.043234 -0.017956 0.005919 0.012900 0.019963 0.007742 -0.013920 0.004460 -0.012177 -0.003419 -0.010525 -0.038920 0.050409 0.029472 -0.015452 -0.004151 0.022681 0.026981 -0.015464 -0.010843 -0.015842 -0.044682 0.020056 0.020680 0.010269 0.005165 -0.045274 -0.008628 0.047538 0.004459 -0.017157 0.006857 -0.014193 0.022091 0.006892 0.003819 0.024429 -0.027556 -0.042855 0.028294 0.022498 -0.018545 -0.009003 -0.020571 -0.000003 0.037494 0.010309 0.024566 0.028341 -0.024589 0.000148 0.033051 0.019571 -0.005715 -0.014560 0.070264 -0.039396 -0.010973 0.027108 -0.009275 0.012215 0.019398 0.001067 0.034813 -0.008810 -0.001551 -0.022698 0.026647 -0.009594 -0.051514 0.024521 -0.039526 0.001148 -0.014421 -0.013586 0.033353 0.011703 0.013419 -0.010198 0.030504 0.050791 0.006660 -0.017220 0.030806 -0.036895 0.023125 -0.003054 0.037018 0.016633 0.033000 0.032276 0.030705 0.018006 0.024276 -0.015269 0.009996 0.009977 -0.029458 -0.006495 0.011117 0.004866 0.006126 0.009617 -0.005321 0.071197 -0.017002 0.063273 -0.042515 -0.027867 -0.004589 0.042622 0.042274 -0.058010 0.031664 0.023597 -0.006663 0.006980 -0.010508 -0.038511 -0.008491 0.007867 -0.006706 -0.016976 0.044187 0.028382 -0.007766 -0.007303 -0.026991 0.008400 0.005071 -0.016602 0.039185 -0.012349 -0.018844 -0.010417 -0.029510 0.035293 -0.025398 -0.016939 0.026268 0.017944 0.016179 0.046034 -0.047251 -0.017916 -0.006540 -0.019634 -0.017772 -0.054867 0.017473 -0.040501 0.007416 -0.004580 -0.011885 0.002407 0.014699 -0.000200 0.020104 -0.030757 0.004118 0.033931 0.026967 0.008397 0.034480 0.037518 0.004917 -0.009502 0.037948 -0.025375 -0.003193 -0.008097 -0.007421 0.008078 -0.004366 -0.041840 -0.014637 0.016401 -0.010736 -0.023505 -0.026235 0.002608 -0.018668 -0.018143 -0.008972 -0.018250 -0.016517 -0.001391 -0.035892 0.013849 0.016196 -0.005450 -0.033947 -0.005454 0.032729 -0.024413 
by -0.018741 -0.020693 0.001882 -0.001254 -0.003110 -0.028801 -0.009252 0.003567 0.007850 0.013097 0.003179 -0.006781 0.001121 -0.008359 -0.003371 -0.007146 -0.021566 0.028996 0.018012 -0.007614 -0.004300 0.014751 0.016378 -0.007507 -0.008522 -0.008793 -0.025571 0.009352 0.012670 0.002298 0.004489 -0.028878 -0.001329 0.029752 0.001806 -0.008286 0.000382 -0.007158 0.012550 0.004425 0.003490 0.012568 -0.017911 -0.025133 0.017395 0.014213 -0.008145 -0.007351 -0.011874 0.000463 0.023313 0.005950 0.015590 0.019788 -0.016612 0.002782 0.018598 0.010882 -0.002005 -0.009874 0.039898 -0.024926 -0.004649 0.012936 -0.003398 0.008068 0.012041 0.002426 0.020988 -0.003214 0.000952 -0.011847 0.014158 -0.005294 -0.028927 0.012031 -0.024936 0.000093 -0.005718 -0.010343 0.018276 0.005267 0.006346 -0.005652 0.018832 0.028636 0.003731 -0.010901 0.016763 -0.021868 0.013581 -0.004391 0.021747 0.006983 0.021059 0.018645 0.019009 0.010091 0.012288 -0.012035 0.005422 0.003497 -0.017083 -0.004277 0.004381 0.004849 0.002806 0.004161 -0.004126 0.043398 -0.011344 0.038587 -0.024575 -0.018284 -0.003259 0.025443 0.026054 -0.035156 0.016354 0.013667 -0.003332 0.005818 -0.008117 -0.022792 -0.003211 0.008291 -0.001781 -0.011782 0.025734 0.015396 -0.002573 -0.003693 -0.017144 0.002928 0.005617 -0.009980 0.023152 -0.007580 -0.007852 -0.008737 -0.015668 0.020197 -0.015579 -0.010004 0.014838 0.008264 0.005646 0.027860 -0.028614 -0.011796 -0.004136 -0.010939 -0.009853 -0.033888 0.007880 -0.023103 0.003215 -0.001481 -0.005078 -0.000782 0.009878 -0.001390 0.011284 -0.017562 0.005083 0.022498 0.012291 0.006313 0.019938 0.022625 0.000903 -0.006327 0.021692 -0.012673 -0.003319 -0.002427 -0.006322 0.006539 -0.005058 -0.025097 -0.008918 0.010295 -0.008597 -0.011279 -0.015230 0.001491 -0.010084 -0.011394 -0.004848 -0.009955 -0.011432 -0.000581 -0.020393 0.009670 0.011227 -0.002487 -0.017627 -0.004311 0.020924 -0.013149 
at -0.090473 -0.114531 0.001927 -0.001047 -0.015139 -0.136929 -0.049161 0.021859 0.045659 0.067937 0.023222 -0.034705 0.017208 -0.042103 -0.013461 -0.025078 -0.119136 0.158766 0.083858 -0.053343 -0.017836 0.074616 0.077256 -0.041102 -0.031237 -0.040224 -0.134447 0.056300 0.070069 0.026441 0.021783 -0.136175 -0.022436 0.143305 0.013214 -0.052191 0.013609 -0.039619 0.067587 0.026425 0.013042 0.078982 -0.091486 -0.134951 0.083407 0.069528 -0.050078 -0.023858 -0.066064 -0.004146 0.112187 0.038418 0.079118 0.086320 -0.076474 0.004477 0.096211 0.056910 -0.020725 -0.041172 0.209178 -0.121785 -0.031927 0.078060 -0.027011 0.037009 0.060125 0.005259 0.102998 -0.028475 0.001416 -0.067402 0.076001 -0.028452 -0.162064 0.071395 -0.123496 -0.002293 -0.035165 -0.047948 0.093109 0.035736 0.036948 -0.034127 0.095232 0.150246 0.025204 -0.052563 0.093864 -0.108869 0.066268 -0.016453 0.112102 0.043331 0.106529 0.095514 0.092477 0.055670 0.069309 -0.050305 0.031512 0.031503 -0.089843 -0.023185 0.033922 0.018177 0.023118 0.034743 -0.012191 0.220645 -0.050041 0.185255 -0.124503 -0.085906 -0.015720 0.124591 0.124009 -0.175990 0.097296 0.074191 -0.026393 0.021589 -0.032716 -0.121522 -0.022808 0.033312 -0.018802 -0.053554 0.127921 0.089951 -0.018248 -0.020307 -0.077870 0.025764 0.018085 -0.052472 0.112477 -0.047021 -0.050998 -0.035898 -0.091986 0.108914 -0.078365 -0.060295 0.079229 0.051873 0.038680 0.134234 -0.140496 -0.054703 -0.014433 -0.057168 -0.051112 -0.165943 0.049307 -0.119144 0.022994 -0.007271 -0.030539 0.001701 0.049023 -0.006245 0.059681 -0.089253 0.019102 0.108548 0.077311 0.021332 0.105639 0.116047 0.010761 -0.036731 0.110628 -0.074978 -0.005594 -0.023256 -0.027242 0.024013 -0.017630 -0.125642 -0.043969 0.042408 -0.031533 -0.071479 -0.074848 0.010268 -0.058040 -0.060442 -0.024805 -0.063180 -0.051064 -0.006994 -0.109021 0.042138 0.046634 -0.017962 -0.101341 -0.017435 0.105967 -0.073744 
their -0.015111 -0.018836 -0.001060 0.002433 -0.001279 -0.020576 -0.007457 0.002698 0.007853 0.012699 0.002783 -0.007169 0.004017 -0.006388 -0.004039 -0.002268 -0.016802 0.026142 0.014911 -0.006337 -0.001680 0.011556 0.012387 -0.008399 -0.003438 -0.007084 -0.019677 0.009264 0.011239 0.006168 0.004065 -0.020641 -0.001351 0.022441 0.003806 -0.010928 0.002564 -0.004679 0.012614 0.003649 0.004138 0.012842 -0.014210 -0.019566 0.014261 0.010098 -0.010115 -0.003417 -0.010935 -0.000802 0.019311 0.006083 0.010365 0.014291 -0.011770 -0.000530 0.013145 0.009026 -0.005963 -0.004013 0.035056 -0.017354 -0.005681 0.012681 -0.003921 0.005655 0.007173 -0.000225 0.016056 -0.002809 0.001145 -0.009343 0.011093 -0.005527 -0.026848 0.012082 -0.019150 -0.002472 -0.005198 -0.005873 0.017452 0.008227 0.004755 -0.005268 0.014997 0.024179 0.002167 -0.007237 0.014924 -0.016618 0.011804 -0.002442 0.016993 0.006241 0.017531 0.017475 0.012398 0.008406 0.012096 -0.010621 0.004468 0.005223 -0.015862 -0.004530 0.006627 0.003142 0.002883 0.007331 -0.001622 0.035160 -0.007463 0.028016 -0.018291 -0.014642 -0.002363 0.021480 0.017103 -0.029087 0.014694 0.011694 -0.001466 0.002017 -0.005898 -0.019975 -0.001387 0.006580 -0.002915 -0.007841 0.021976 0.012424 -0.004043 -0.001017 -0.012790 0.002831 0.000654 -0.009606 0.016271 -0.005408 -0.010400 -0.005869 -0.013287 0.019361 -0.013821 -0.011071 0.012618 0.006914 0.004751 0.020489 -0.020850 -0.007132 -0.004102 -0.007992 -0.008413 -0.024124 0.007266 -0.018743 0.004036 -0.003465 -0.003090 0.000385 0.008575 0.000339 0.007241 -0.015026 0.002874 0.017474 0.012856 0.003475 0.017656 0.019158 0.001320 -0.006072 0.017717 -0.013459 -0.001237 -0.005616 -0.006074 0.001966 -0.004163 -0.020589 -0.008470 0.004362 -0.005289 -0.013675 -0.013792 0.000287 -0.011527 -0.012206 -0.005338 -0.011151 -0.006400 0.000517 -0.018024 0.005023 0.007520 -0.000649 -0.014333 -0.001201 0.018152 -0.013119 
as -0.054868 -0.068416 0.002215 -0.000454 -0.007204 -0.084307 -0.030522 0.013634 0.026013 0.039143 0.010506 -0.020259 0.011659 -0.026723 -0.008885 -0.015543 -0.070592 0.097055 0.048668 -0.028889 -0.010156 0.049161 0.047805 -0.025207 -0.021113 -0.026603 -0.079277 0.036835 0.043975 0.017277 0.012338 -0.081480 -0.015139 0.085169 0.009701 -0.034148 0.006950 -0.021735 0.043128 0.015585 0.005888 0.047397 -0.055615 -0.083808 0.052374 0.040290 -0.028554 -0.014262 -0.039183 -0.002869 0.070345 0.020100 0.049562 0.054718 -0.047121 0.001966 0.056470 0.032840 -0.014307 -0.026434 0.125492 -0.070856 -0.018634 0.045204 -0.013982 0.021383 0.037476 0.003555 0.062673 -0.015999 0.000669 -0.041732 0.043384 -0.018785 -0.098753 0.039949 -0.076344 -0.004859 -0.021113 -0.030700 0.057056 0.022580 0.020354 -0.021852 0.056174 0.091750 0.012246 -0.032219 0.057425 -0.068096 0.039232 -0.009094 0.068001 0.027921 0.064600 0.059491 0.058043 0.034018 0.039743 -0.028178 0.020039 0.019406 -0.052280 -0.014771 0.020218 0.010611 0.015625 0.019168 -0.008230 0.134483 -0.032079 0.115679 -0.072889 -0.049940 -0.012191 0.076223 0.075276 -0.108654 0.058530 0.048401 -0.016378 0.013621 -0.021098 -0.075373 -0.012671 0.016505 -0.009911 -0.031936 0.078552 0.055278 -0.010358 -0.013831 -0.049793 0.013588 0.012113 -0.033003 0.067307 -0.028728 -0.029451 -0.021307 -0.056004 0.063760 -0.047883 -0.034062 0.051234 0.029872 0.024868 0.080258 -0.085396 -0.031858 -0.011844 -0.032734 -0.032607 -0.104432 0.029135 -0.071773 0.014859 -0.005581 -0.018540 0.001261 0.029209 -0.003154 0.034099 -0.057958 0.011457 0.063327 0.046129 0.011243 0.062657 0.067852 0.007221 -0.021004 0.065059 -0.045712 -0.005274 -0.016117 -0.014596 0.014393 -0.012989 -0.077081 -0.028758 0.026250 -0.020056 -0.041632 -0.044089 0.004356 -0.036692 -0.039450 -0.012692 -0.036962 -0.033150 -0.004985 -0.067258 0.026874 0.026800 -0.013041 -0.062408 -0.009620 0.065576 -0.043487 
Enter 0.000614 0.000621 -0.000224 0.001421 -0.000397 -0.001119 0.000636 0.001194 0.001811 0.001397 0.002217 -0.000287 -0.000124 -0.001307 -0.000093 -0.001126 -0.002509 -0.000944 0.001464 0.001431 0.000425 0.000127 -0.000785 0.001971 -0.000698 0.001859 -0.001876 0.000313 0.002177 0.000363 -0.000983 -0.001999 0.002320 -0.001738 -0.001559 -0.001593 0.000160 -0.001722 -0.000047 0.000723 0.002065 0.000843 -0.002628 -0.000413 0.000606 0.001721 0.002288 -0.002290 -0.000758 -0.001871 0.001267 0.002305 -0.001262 -0.001134 0.002131 0.002414 0.000007 -0.001567 0.000072 -0.001291 0.000738 -0.002447 0.000199 -0.002144 -0.000965 -0.000632 -0.000077 0.002376 0.001282 0.001491 0.001882 0.001691 -0.002226 -0.000677 0.000548 0.001709 0.001432 -0.001482 -0.002482 -0.002131 0.001511 0.001485 -0.001100 -0.000781 0.002621 0.001853 -0.001727 -0.000967 0.000894 -0.001335 -0.000054 -0.001370 -0.000739 -0.000982 -0.000525 -0.001048 0.001346 -0.000418 -0.000968 -0.002392 0.002452 -0.000899 0.001500 -0.000369 -0.001084 0.001733 0.002027 -0.000130 -0.002097 -0.000356 0.000601 0.000169 -0.001181 -0.001357 -0.000570 -0.002080 0.001455 -0.001531 0.002112 -0.002190 0.001843 -0.001622 0.002230 -0.000061 -0.001827 -0.000331 0.001223 0.001221 -0.001142 -0.000965 0.000869 -0.000498 -0.001105 0.000505 -0.000747 -0.001249 0.000330 -0.001507 0.000781 -0.000555 -0.000601 -0.000352 0.001301 -0.001787 0.001502 0.000095 -0.002066 -0.001849 0.000326 -0.000443 -0.001605 -0.002121 -0.001683 0.001935 -0.002186 -0.002092 0.002373 -0.001016 0.001084 0.000685 0.001703 0.002561 0.000730 -0.001899 0.000925 0.001004 -0.000145 -0.000312 0.001953 -0.000551 -0.002440 0.000828 0.001735 -0.001859 0.000027 -0.001649 -0.000752 0.000681 -0.001008 -0.000399 -0.000038 -0.000447 -0.002237 -0.000676 -0.000020 -0.000190 0.000654 -0.002409 0.002103 -0.002499 -0.001526 0.001312 -0.000503 -0.000014 -0.001947 -0.001823 -0.002034 0.000458 -0.001913 0.001976 
our -0.022033 -0.027018 0.003467 -0.001733 -0.005042 -0.029575 -0.009195 0.004716 0.008471 0.016329 0.003181 -0.010302 0.003599 -0.010862 -0.003033 -0.008864 -0.025209 0.038404 0.020827 -0.012702 -0.002690 0.017264 0.016884 -0.010527 -0.009223 -0.007866 -0.031959 0.012795 0.016295 0.005080 0.003579 -0.030691 -0.003762 0.030773 0.002622 -0.013484 0.004640 -0.010652 0.016863 0.004341 0.004378 0.017103 -0.020998 -0.033322 0.020066 0.017640 -0.011701 -0.003694 -0.015383 -0.003589 0.026630 0.009963 0.020824 0.022052 -0.015748 -0.001170 0.023984 0.014987 -0.002958 -0.011433 0.046558 -0.025911 -0.009575 0.019009 -0.007141 0.008685 0.013449 -0.000243 0.023218 -0.006454 -0.001941 -0.017051 0.017537 -0.004667 -0.037311 0.015256 -0.028208 -0.001395 -0.011177 -0.012333 0.024321 0.011472 0.010469 -0.006696 0.019210 0.032697 0.003382 -0.014140 0.023213 -0.022708 0.012733 -0.005943 0.027519 0.009024 0.024045 0.020654 0.023074 0.010289 0.013119 -0.009547 0.004715 0.006682 -0.023200 -0.006885 0.007456 0.002618 0.007321 0.010116 -0.000953 0.051200 -0.013685 0.044624 -0.028586 -0.018585 -0.002407 0.031074 0.027374 -0.038557 0.023803 0.017813 -0.005863 0.005549 -0.005461 -0.029467 -0.005779 0.006141 -0.005430 -0.009816 0.029705 0.019107 -0.005613 -0.003399 -0.016977 0.005288 0.004264 -0.010371 0.024590 -0.011062 -0.009628 -0.006812 -0.023173 0.026094 -0.016832 -0.012438 0.017009 0.011551 0.008388 0.030547 -0.032455 -0.010814 -0.005196 -0.014183 -0.012715 -0.040266 0.009531 -0.025550 0.004655 -0.002356 -0.006226 -0.002381 0.009488 -0.002909 0.015878 -0.019302 0.003835 0.022935 0.018104 0.006042 0.022942 0.025418 0.003238 -0.009970 0.023957 -0.017025 -0.004035 -0.003371 -0.003519 0.006536 -0.005661 -0.030809 -0.009255 0.009530 -0.009938 -0.017815 -0.017102 0.002247 -0.015539 -0.012786 -0.007831 -0.016258 -0.011254 -0.001791 -0.023158 0.008788 0.008782 -0.004833 -0.023843 -0.004113 0.023906 -0.014286 
A -0.046551 -0.058899 0.003182 0.000540 -0.007663 -0.069303 -0.022144 0.011337 0.024135 0.031635 0.011951 -0.018440 0.006013 -0.019766 -0.006262 -0.013173 -0.059612 0.080900 0.041598 -0.023393 -0.007456 0.040124 0.038613 -0.022224 -0.015822 -0.019041 -0.069077 0.027148 0.033080 0.014327 0.010528 -0.069897 -0.010981 0.072171 0.006702 -0.026489 0.004541 -0.017855 0.034004 0.012446 0.006874 0.036680 -0.043514 -0.066250 0.042565 0.036866 -0.024836 -0.014005 -0.031967 -0.000279 0.056266 0.018364 0.042432 0.042633 -0.039279 0.000631 0.047593 0.027007 -0.010993 -0.020639 0.102929 -0.062904 -0.016447 0.036811 -0.012729 0.015153 0.031589 0.002759 0.051316 -0.015818 -0.000798 -0.034032 0.037910 -0.011024 -0.080371 0.034689 -0.064655 0.000372 -0.020470 -0.025922 0.049550 0.019818 0.015872 -0.019196 0.048687 0.076571 0.009749 -0.027687 0.047600 -0.054244 0.031816 -0.007516 0.053981 0.024551 0.053994 0.047233 0.047828 0.025166 0.034265 -0.027198 0.012636 0.013121 -0.044160 -0.010575 0.018170 0.010531 0.013231 0.017273 -0.005384 0.111759 -0.027855 0.094444 -0.063763 -0.044745 -0.009479 0.062485 0.064640 -0.089027 0.048476 0.040661 -0.013371 0.011226 -0.013922 -0.062168 -0.013599 0.016400 -0.009343 -0.025258 0.067161 0.043180 -0.009926 -0.008306 -0.038982 0.011475 0.009589 -0.025752 0.057031 -0.024288 -0.024303 -0.016416 -0.046900 0.054882 -0.037271 -0.032135 0.039686 0.025437 0.022851 0.067690 -0.071534 -0.027692 -0.008875 -0.025671 -0.026070 -0.084211 0.021337 -0.060368 0.011987 -0.005052 -0.018431 0.000555 0.024231 -0.005036 0.027352 -0.048689 0.007380 0.055928 0.036650 0.011261 0.053165 0.057640 0.004126 -0.017866 0.056402 -0.034700 -0.005070 -0.014194 -0.012616 0.012985 -0.011670 -0.064038 -0.024440 0.024242 -0.015485 -0.037624 -0.036145 0.002494 -0.028356 -0.029894 -0.011956 -0.030709 -0.028209 -0.001983 -0.054336 0.024039 0.022300 -0.009661 -0.051826 -0.009967 0.053536 -0.037918 
And -0.012139 -0.017022 0.003318 0.000119 -0.001656 -0.022211 -0.009826 0.001916 0.005649 0.012683 0.000921 -0.004554 0.002532 -0.006631 -0.001071 -0.003480 -0.015856 0.025285 0.014699 -0.008822 -0.001150 0.013382 0.013442 -0.003877 -0.006651 -0.007322 -0.019423 0.007181 0.012263 0.005592 0.001940 -0.019611 -0.005377 0.021771 0.001958 -0.006194 0.001836 -0.006887 0.010138 0.005600 0.002997 0.013534 -0.014246 -0.023377 0.014900 0.011694 -0.008897 -0.004022 -0.011258 0.001890 0.018090 0.004342 0.011064 0.014866 -0.009969 0.001501 0.015650 0.008953 -0.003902 -0.007511 0.032795 -0.020512 -0.004663 0.013165 -0.004500 0.004045 0.009615 0.000429 0.014975 -0.005440 -0.000651 -0.009744 0.010343 -0.004131 -0.025212 0.011622 -0.020650 0.001191 -0.006801 -0.006486 0.014904 0.004145 0.003025 -0.005170 0.014962 0.024022 0.004282 -0.007462 0.013779 -0.015746 0.010263 -0.002052 0.017415 0.004924 0.015965 0.012827 0.015735 0.009591 0.008580 -0.008133 0.003281 0.006715 -0.011900 -0.002577 0.007508 0.000662 0.005742 0.006148 -0.000942 0.035087 -0.005774 0.027170 -0.016873 -0.015326 -0.000475 0.017636 0.017188 -0.028798 0.017043 0.013947 -0.001819 0.003785 -0.005640 -0.020278 -0.003607 0.006656 -0.001062 -0.006761 0.018079 0.011642 -0.003251 -0.002538 -0.013542 0.003819 0.004637 -0.009393 0.017682 -0.007713 -0.005293 -0.008097 -0.015489 0.016648 -0.013860 -0.006797 0.011747 0.009397 0.005837 0.017977 -0.020908 -0.007445 -0.001133 -0.008145 -0.007412 -0.026786 0.008482 -0.019802 0.004292 -0.000934 -0.003319 0.001217 0.008064 -0.002061 0.007153 -0.015689 0.001475 0.018093 0.011837 0.000679 0.015066 0.017488 0.002608 -0.004608 0.017956 -0.013479 0.001006 -0.005821 -0.002070 0.003048 -0.003492 -0.021004 -0.008539 0.008604 -0.006574 -0.010924 -0.011526 0.003126 -0.008303 -0.009213 -0.002900 -0.006921 -0.008596 0.001531 -0.018552 0.005872 0.006440 -0.005091 -0.016114 -0.000648 0.017538 -0.012898 
from -0.035601 -0.043214 0.003135 0.000671 -0.006467 -0.051295 -0.019208 0.008191 0.017080 0.027140 0.005409 -0.011655 0.007652 -0.013723 -0.006386 -0.008928 -0.045460 0.058034 0.029228 -0.021499 -0.005654 0.027557 0.029591 -0.014951 -0.011292 -0.017592 -0.051090 0.020490 0.026288 0.011676 0.007726 -0.051760 -0.005350 0.051753 0.005982 -0.017997 0.002971 -0.014074 0.024821 0.008961 0.002579 0.026742 -0.035667 -0.050639 0.032087 0.027277 -0.017683 -0.010375 -0.025981 -0.002075 0.040941 0.016560 0.027963 0.032319 -0.030740 0.001732 0.035280 0.022382 -0.006939 -0.013135 0.080093 -0.044225 -0.010351 0.027384 -0.007292 0.014366 0.025221 0.001012 0.040109 -0.009892 0.001575 -0.026639 0.029639 -0.012304 -0.058611 0.027331 -0.048207 -0.001393 -0.012418 -0.019679 0.034457 0.013619 0.014707 -0.014847 0.034539 0.056142 0.008309 -0.019481 0.034276 -0.042692 0.025631 -0.005407 0.039939 0.015757 0.040713 0.034997 0.037603 0.018065 0.027170 -0.020005 0.012286 0.010441 -0.032877 -0.008525 0.013800 0.009124 0.007352 0.011232 -0.006501 0.085071 -0.019751 0.070104 -0.047830 -0.034750 -0.004101 0.048982 0.047748 -0.064494 0.035434 0.026953 -0.007728 0.007427 -0.013173 -0.045311 -0.009542 0.012619 -0.008975 -0.019460 0.050957 0.031924 -0.006936 -0.007735 -0.029824 0.011930 0.004864 -0.020916 0.041936 -0.016838 -0.021759 -0.011697 -0.036642 0.040158 -0.028689 -0.020674 0.028977 0.019514 0.016602 0.050622 -0.054492 -0.020373 -0.005625 -0.018199 -0.018355 -0.063736 0.017969 -0.046748 0.011287 -0.000880 -0.013923 -0.000858 0.016973 -0.003713 0.021528 -0.037082 0.006217 0.039679 0.027910 0.006676 0.038155 0.045722 0.004390 -0.015874 0.038222 -0.028225 -0.002748 -0.007743 -0.010444 0.006280 -0.005150 -0.046862 -0.017301 0.017403 -0.012022 -0.028772 -0.026929 0.002002 -0.023929 -0.021214 -0.009808 -0.021060 -0.018793 -0.003496 -0.042739 0.014721 0.018335 -0.005200 -0.037717 -0.006904 0.038031 -0.026716 
so -0.007886 -0.009262 -0.000073 -0.000484 -0.003398 -0.010878 -0.001651 0.003248 0.004442 0.004417 0.003464 -0.003952 -0.000659 -0.001208 -0.003321 -0.001838 -0.007744 0.013755 0.005333 -0.001636 0.000848 0.006624 0.007598 -0.003080 -0.002096 -0.001726 -0.007110 0.006522 0.005257 0.002368 0.000949 -0.011887 -0.002602 0.009912 0.003099 -0.005638 -0.000945 -0.004933 0.006603 0.000703 0.003171 0.004867 -0.007976 -0.012087 0.007440 0.006824 -0.005605 -0.002997 -0.003500 -0.000672 0.006621 0.001525 0.006103 0.006217 -0.005632 -0.001418 0.008690 0.002715 -0.000504 -0.003176 0.016446 -0.008971 -0.003555 0.003307 -0.002603 0.000869 0.001780 -0.001501 0.006562 -0.001344 -0.001089 -0.002146 0.004233 -0.003411 -0.012819 0.003428 -0.009619 0.000099 -0.001467 -0.004029 0.008704 0.003824 0.002821 -0.000549 0.005361 0.013109 0.003202 -0.001287 0.005583 -0.008256 0.007382 -0.002808 0.009959 0.001359 0.008530 0.006116 0.006520 0.005958 0.005732 -0.003832 0.002171 -0.000341 -0.007718 -0.004102 0.003308 0.003246 0.003273 0.002692 -0.002542 0.014682 -0.001949 0.015254 -0.011414 -0.004591 -0.001330 0.011163 0.011329 -0.014870 0.007575 0.004227 -0.001105 0.001506 -0.000934 -0.010099 -0.003626 0.003034 -0.000885 -0.002367 0.010425 0.006389 0.000551 -0.003381 -0.004926 0.000481 0.003254 -0.004444 0.006702 -0.003947 -0.001825 -0.004050 -0.004546 0.008355 -0.005242 -0.004161 0.004884 0.004978 0.005337 0.008541 -0.009022 -0.004827 -0.003693 -0.002803 -0.005783 -0.012822 0.001981 -0.008034 0.001478 0.001341 -0.004127 0.001426 0.006001 0.000928 0.004921 -0.008430 -0.001094 0.006148 0.003307 -0.000193 0.008647 0.009290 0.001229 -0.003520 0.009210 -0.004506 0.001796 -0.001803 -0.001834 0.001542 -0.003558 -0.007723 -0.002787 0.001344 -0.000370 -0.004771 -0.004310 -0.001614 -0.005823 -0.005733 -0.000172 -0.007241 -0.005647 0.001419 -0.009055 0.005632 0.000713 -0.001883 -0.007452 -0.003849 0.009617 -0.007298 
be -0.006973 -0.005933 0.001979 0.000855 0.000042 -0.007390 -0.001466 0.003178 0.005254 0.002213 0.002262 -0.000880 0.001353 -0.000948 -0.001159 -0.000674 -0.008642 0.010174 0.005990 -0.004000 -0.002486 0.006813 0.006645 -0.003137 -0.001359 -0.000929 -0.006330 0.005710 0.006645 0.002227 -0.001074 -0.009328 0.000738 0.009684 0.001604 -0.004079 0.001394 -0.002099 0.003174 0.001803 -0.000239 0.004392 -0.003913 -0.011001 0.005426 0.003546 -0.002848 -0.003261 -0.006614 0.001836 0.008135 0.003196 0.006582 0.006617 -0.007278 -0.001172 0.003836 0.004521 -0.001622 -0.000416 0.013194 -0.010000 -0.000389 0.002531 -0.000975 0.001263 0.006509 -0.000482 0.007535 -0.003107 -0.001137 -0.004881 0.006643 -0.001442 -0.010002 0.004759 -0.007484 0.000489 -0.004068 -0.000559 0.007200 -0.000057 0.001625 -0.003536 0.004856 0.008396 0.003178 -0.004395 0.006482 -0.008150 0.003470 -0.003174 0.004608 0.002000 0.005834 0.008310 0.005405 0.004985 0.006556 -0.002869 0.003319 0.002697 -0.004129 -0.000377 0.001652 0.001715 0.003793 0.001913 0.000271 0.016170 -0.003892 0.009831 -0.007441 -0.003507 -0.000497 0.006748 0.010352 -0.011206 0.004448 0.005880 -0.003437 0.001917 -0.004435 -0.007333 -0.000684 0.001416 -0.002160 -0.004854 0.007099 0.004292 -0.001405 -0.003170 -0.002962 0.003832 0.002960 -0.004650 0.009702 -0.003583 -0.001808 -0.001794 -0.003742 0.008557 -0.006840 -0.003753 0.004825 0.004294 0.001672 0.008021 -0.007856 -0.002317 -0.002857 -0.004224 -0.002035 -0.009022 0.001600 -0.007859 0.001209 -0.001656 -0.000364 0.001668 0.001078 -0.001184 0.003100 -0.007745 -0.000692 0.009429 0.005269 -0.000314 0.007242 0.009991 -0.000330 -0.004263 0.004963 -0.003810 -0.000596 -0.003223 -0.002495 0.000115 -0.000122 -0.010473 -0.003351 0.003658 -0.002041 -0.004586 -0.004660 0.002254 -0.001735 -0.003558 -0.003583 -0.001981 -0.000941 0.000017 -0.008923 0.002002 0.000582 -0.001900 -0.006617 0.000518 0.008393 -0.005097 
for -0.055790 -0.069495 0.001752 0.001656 -0.009897 -0.084093 -0.030215 0.012129 0.027411 0.042211 0.013244 -0.018771 0.007868 -0.025537 -0.007862 -0.014607 -0.073298 0.098724 0.048995 -0.033600 -0.009652 0.046932 0.049219 -0.022917 -0.021419 -0.026877 -0.082157 0.037462 0.043639 0.015522 0.013380 -0.081818 -0.014497 0.088494 0.010031 -0.034696 0.010134 -0.022887 0.044404 0.017166 0.007622 0.048825 -0.057783 -0.084942 0.049519 0.039909 -0.032524 -0.015942 -0.041528 -0.003308 0.066234 0.024151 0.050914 0.055372 -0.045850 0.002401 0.056522 0.036029 -0.010841 -0.022671 0.125999 -0.075537 -0.022241 0.047783 -0.017715 0.022441 0.039098 0.001310 0.061592 -0.014522 0.002062 -0.041825 0.045973 -0.014765 -0.100738 0.043261 -0.079274 -0.002207 -0.024221 -0.029083 0.061034 0.024652 0.021185 -0.019615 0.058432 0.095565 0.015012 -0.034181 0.058098 -0.067497 0.038343 -0.007278 0.068605 0.027095 0.066979 0.060553 0.059897 0.033313 0.041637 -0.032734 0.019530 0.019997 -0.055352 -0.016800 0.023359 0.012733 0.014996 0.020160 -0.010063 0.135689 -0.029379 0.116233 -0.073529 -0.054580 -0.010245 0.076616 0.077760 -0.107238 0.061718 0.045613 -0.015690 0.012264 -0.021734 -0.075883 -0.016916 0.019126 -0.012136 -0.033577 0.081666 0.052587 -0.007974 -0.014078 -0.049901 0.016877 0.010168 -0.032389 0.071400 -0.028598 -0.029539 -0.022311 -0.057152 0.068296 -0.049890 -0.036588 0.051441 0.028368 0.027637 0.078767 -0.083148 -0.032295 -0.008530 -0.032604 -0.030974 -0.102913 0.029695 -0.074548 0.016541 -0.005166 -0.019994 -0.001881 0.032625 -0.002761 0.036973 -0.055873 0.011775 0.064821 0.044519 0.010048 0.062907 0.071662 0.007892 -0.024117 0.065117 -0.044368 -0.006706 -0.015674 -0.019070 0.010815 -0.014964 -0.080995 -0.030456 0.024142 -0.020509 -0.043844 -0.047016 0.004184 -0.035793 -0.038552 -0.015191 -0.038861 -0.034518 -0.005203 -0.069483 0.024953 0.024957 -0.012368 -0.061102 -0.010606 0.065109 -0.041338 
or -0.021986 -0.026416 0.002445 0.001030 -0.004420 -0.035600 -0.012132 0.006127 0.009957 0.018358 0.006623 -0.009443 0.002855 -0.010864 -0.003765 -0.006667 -0.029632 0.042629 0.018903 -0.012315 -0.006909 0.020977 0.018879 -0.010039 -0.009539 -0.012251 -0.031422 0.013412 0.016456 0.004157 0.004179 -0.036577 -0.007299 0.034207 0.003735 -0.011304 0.004542 -0.008503 0.017301 0.004906 0.002508 0.018249 -0.020880 -0.036821 0.021656 0.018161 -0.015075 -0.004719 -0.018552 -0.001668 0.026967 0.008654 0.022854 0.020746 -0.022189 0.000048 0.023871 0.012254 -0.005258 -0.009932 0.050960 -0.032597 -0.007405 0.020680 -0.005983 0.011131 0.017740 -0.000378 0.023816 -0.009015 0.002602 -0.014706 0.019773 -0.006589 -0.039761 0.020049 -0.030044 -0.000301 -0.011206 -0.011884 0.024765 0.010458 0.011096 -0.009550 0.025334 0.038160 0.005003 -0.014702 0.025708 -0.025930 0.016772 -0.005568 0.030662 0.009141 0.027523 0.024382 0.022392 0.014135 0.019302 -0.010595 0.007272 0.005907 -0.024829 -0.008172 0.011367 0.005947 0.003536 0.007111 -0.003977 0.055645 -0.011348 0.048148 -0.032985 -0.020924 -0.006333 0.033512 0.033026 -0.045579 0.022989 0.019696 -0.008844 0.004795 -0.009900 -0.033118 -0.004623 0.008942 -0.006926 -0.012454 0.034370 0.020485 -0.004840 -0.003046 -0.018287 0.004597 0.005459 -0.012770 0.027764 -0.010613 -0.010534 -0.007906 -0.022067 0.025491 -0.021478 -0.013128 0.022212 0.013809 0.012287 0.033653 -0.034519 -0.015024 -0.003331 -0.015682 -0.013404 -0.041706 0.011534 -0.031035 0.008122 -0.002961 -0.009848 -0.001646 0.012274 -0.002307 0.015377 -0.024818 0.003568 0.029152 0.021357 0.004797 0.027880 0.028926 0.002833 -0.008068 0.026631 -0.018836 -0.004097 -0.006079 -0.006237 0.005098 -0.006069 -0.032939 -0.010434 0.012752 -0.007677 -0.019746 -0.021309 0.004049 -0.016709 -0.013299 -0.004294 -0.015082 -0.011900 0.000770 -0.029249 0.011872 0.009729 -0.002944 -0.023593 -0.005563 0.028010 -0.018108 
this -0.002117 -0.003748 -0.000481 0.002204 0.001560 -0.000311 -0.000717 0.000192 -0.000295 0.002716 -0.001556 0.000515 0.001826 -0.001375 -0.001835 -0.000578 -0.001173 0.003518 0.000431 0.000849 -0.002484 0.002222 -0.001646 -0.002561 -0.002752 -0.000491 -0.002321 0.002290 0.000925 0.001340 -0.002023 0.000516 0.001641 0.001190 -0.002080 -0.000887 0.000055 0.001053 0.000445 0.001323 -0.001504 -0.000349 -0.000201 -0.002485 0.003405 0.001100 -0.001566 -0.002731 -0.002442 0.000813 0.000172 0.002902 -0.000634 0.002142 0.000358 -0.000131 0.002953 -0.000586 -0.002383 -0.002411 0.000871 0.000499 0.001940 0.001532 -0.000419 0.000892 -0.000886 -0.000933 -0.000490 0.000457 0.002460 -0.002027 -0.001179 -0.000593 -0.000868 -0.000641 -0.002836 0.000665 0.002012 0.001396 0.002643 -0.000673 0.001545 -0.000737 0.000799 0.001857 -0.001769 -0.002316 0.002576 0.000416 0.000379 0.000634 0.003514 0.002319 0.000631 0.002043 -0.000548 0.001216 0.002859 -0.000916 0.002724 -0.000505 -0.003105 -0.001900 -0.001846 -0.000251 -0.000676 0.000139 -0.000084 0.002544 -0.001930 0.000037 -0.001012 0.000008 0.001061 0.000087 0.002572 -0.003827 0.003437 -0.000700 0.001268 -0.001491 -0.001196 -0.001081 0.001259 0.001214 -0.000640 -0.002785 0.003658 0.000882 -0.001569 0.001687 0.000661 0.001919 0.001412 -0.001407 -0.000700 -0.001946 -0.000712 0.002002 0.000726 -0.000008 -0.003269 -0.000239 0.000135 0.002794 -0.000468 0.000723 -0.003459 -0.000546 -0.000634 -0.000320 0.001349 -0.002508 0.001881 -0.000230 0.001199 -0.001264 -0.002865 0.001192 0.001991 -0.001964 -0.001722 -0.000144 0.001096 -0.000709 0.003175 0.001823 -0.000455 0.002705 -0.001400 0.001151 -0.000037 0.000431 -0.000567 -0.000485 -0.001868 0.002620 -0.000632 0.000001 -0.000405 0.001518 -0.000780 -0.002295 0.001538 -0.000610 0.000680 -0.002033 0.000368 0.000266 -0.002220 0.001062 -0.000529 0.000836 0.000165 0.000994 -0.000406 -0.001513 0.002342 0.000003 
but -0.016417 -0.021119 0.000498 0.002578 -0.001317 -0.025123 -0.009163 0.004632 0.005932 0.013351 0.001610 -0.005607 0.000090 -0.006130 -0.000224 -0.006314 -0.022198 0.025488 0.013344 -0.010971 -0.002427 0.015142 0.015420 -0.008946 -0.005111 -0.005508 -0.022990 0.008037 0.012721 0.002630 0.001624 -0.022368 -0.003222 0.024301 0.001605 -0.009281 0.001148 -0.007904 0.013808 0.002378 -0.000054 0.013090 -0.016212 -0.022338 0.014653 0.012206 -0.010426 -0.004701 -0.011385 0.001102 0.018775 0.005114 0.014407 0.017605 -0.015278 0.001853 0.016482 0.012267 -0.001422 -0.004616 0.036985 -0.018513 -0.007744 0.011533 -0.002850 0.005013 0.011748 -0.000471 0.019396 -0.006167 0.002215 -0.010481 0.011057 -0.007164 -0.029642 0.014174 -0.023203 -0.002338 -0.004836 -0.010738 0.017688 0.005545 0.004509 -0.005935 0.017712 0.028181 0.006380 -0.008875 0.017388 -0.016893 0.008703 -0.000384 0.020650 0.007882 0.018236 0.018649 0.014409 0.007555 0.012937 -0.009704 0.005218 0.007302 -0.015256 -0.002359 0.004965 0.002567 0.004425 0.006475 -0.000335 0.038829 -0.011362 0.034487 -0.022835 -0.014870 -0.002720 0.021020 0.018678 -0.030551 0.016012 0.014253 -0.002910 0.003424 -0.004694 -0.022579 -0.006175 0.007054 -0.003386 -0.011639 0.022614 0.017441 -0.003392 -0.002645 -0.015085 0.004503 0.003684 -0.010371 0.019187 -0.007851 -0.008744 -0.005713 -0.015098 0.021175 -0.011589 -0.011700 0.014260 0.008791 0.006316 0.022133 -0.024477 -0.006753 -0.003473 -0.010374 -0.011350 -0.031141 0.010406 -0.018570 0.003667 -0.003527 -0.007747 -0.000399 0.006305 -0.001578 0.009324 -0.015660 0.000500 0.020139 0.012660 0.005696 0.018433 0.019129 0.004730 -0.004093 0.017935 -0.014418 -0.001980 -0.003350 -0.007415 0.003445 -0.002375 -0.020449 -0.007747 0.006056 -0.003829 -0.013703 -0.013758 0.000541 -0.009232 -0.009135 -0.003240 -0.012814 -0.009975 -0.003340 -0.018683 0.008578 0.005636 -0.003048 -0.015136 -0.005887 0.019170 -0.009915 
if -0.044259 -0.060588 -0.000123 -0.000129 -0.009372 -0.067610 -0.026181 0.012012 0.024122 0.033134 0.011636 -0.018008 0.010287 -0.022383 -0.004607 -0.014751 -0.060358 0.082424 0.040468 -0.028348 -0.011876 0.041359 0.038294 -0.022926 -0.018901 -0.019870 -0.069174 0.031705 0.037147 0.010588 0.011118 -0.072397 -0.011544 0.074570 0.007799 -0.027399 0.005512 -0.018903 0.037219 0.014819 0.005054 0.040519 -0.048411 -0.069554 0.043171 0.034621 -0.025241 -0.011653 -0.036291 -0.002276 0.060381 0.020461 0.041572 0.045642 -0.041133 0.002057 0.050660 0.030116 -0.013177 -0.020237 0.109349 -0.060296 -0.019176 0.041971 -0.011600 0.020913 0.033023 0.002745 0.051457 -0.015475 0.002286 -0.036038 0.040606 -0.010961 -0.084185 0.037542 -0.062462 0.000390 -0.017218 -0.024307 0.049102 0.018380 0.017985 -0.017833 0.045689 0.081201 0.010006 -0.029947 0.048959 -0.055888 0.033673 -0.007730 0.059116 0.022909 0.052303 0.051515 0.046897 0.025974 0.035394 -0.027513 0.014488 0.015506 -0.046927 -0.010590 0.018984 0.007682 0.013752 0.017435 -0.006595 0.113438 -0.026431 0.098393 -0.061488 -0.042865 -0.008667 0.066916 0.065029 -0.092894 0.050914 0.041463 -0.014552 0.013410 -0.017333 -0.061646 -0.010828 0.018865 -0.009494 -0.029169 0.068191 0.043674 -0.006087 -0.012841 -0.041747 0.014624 0.009359 -0.029675 0.058245 -0.025475 -0.028370 -0.019419 -0.049070 0.058406 -0.038694 -0.032252 0.041889 0.023937 0.019106 0.067805 -0.073204 -0.028918 -0.008485 -0.029762 -0.029564 -0.087724 0.026977 -0.061882 0.010483 -0.005297 -0.016004 0.001701 0.025157 -0.001083 0.032279 -0.048177 0.008633 0.055838 0.038517 0.010416 0.053264 0.061305 0.008354 -0.017442 0.057938 -0.040245 -0.002080 -0.010115 -0.015817 0.010955 -0.012069 -0.068258 -0.026328 0.019908 -0.019169 -0.035525 -0.041054 0.004100 -0.027761 -0.032788 -0.013667 -0.032911 -0.028282 -0.002398 -0.059251 0.023107 0.021758 -0.007925 -0.050180 -0.010306 0.056312 -0.038888 
shall -0.018688 -0.022723 -0.000913 -0.001326 -0.003079 -0.028384 -0.010254 0.006689 0.010965 0.012911 0.006209 -0.007947 0.004493 -0.006993 -0.003887 -0.004568 -0.025747 0.030346 0.016237 -0.009576 -0.003536 0.012971 0.015677 -0.005679 -0.005254 -0.005434 -0.027063 0.011852 0.011338 0.002445 0.004454 -0.028659 -0.004990 0.028805 0.000634 -0.012312 0.002035 -0.005700 0.012576 0.004338 0.002971 0.013965 -0.019265 -0.024616 0.017054 0.011973 -0.007861 -0.003334 -0.015276 -0.001994 0.022985 0.005128 0.017507 0.019267 -0.015699 0.000437 0.018276 0.009737 -0.002635 -0.006193 0.040293 -0.023898 -0.008443 0.014578 -0.005761 0.008566 0.011913 -0.000176 0.018619 -0.005847 0.002230 -0.010441 0.014416 -0.003190 -0.033627 0.013533 -0.024112 -0.000669 -0.009015 -0.010383 0.016584 0.009387 0.006892 -0.004697 0.017295 0.029747 0.005584 -0.012134 0.017986 -0.022060 0.014748 -0.004660 0.023253 0.009208 0.018455 0.016901 0.017491 0.012237 0.013381 -0.008310 0.004224 0.007195 -0.019822 -0.002379 0.006245 0.002994 0.004290 0.007252 -0.002320 0.043612 -0.008334 0.034676 -0.024743 -0.018241 -0.001842 0.022188 0.025562 -0.033485 0.019814 0.013897 -0.006294 0.002233 -0.005672 -0.021527 -0.005511 0.006648 -0.003366 -0.012282 0.025780 0.018235 -0.004678 -0.003526 -0.016913 0.003154 0.004571 -0.011629 0.020931 -0.007729 -0.010152 -0.004847 -0.017530 0.021951 -0.016780 -0.012961 0.015564 0.009221 0.008594 0.025800 -0.027354 -0.008477 -0.004384 -0.009340 -0.011386 -0.030917 0.011290 -0.020726 0.006780 -0.001368 -0.004809 -0.000183 0.011850 -0.001834 0.010251 -0.016402 0.002011 0.018964 0.012067 0.005812 0.019381 0.023731 0.004798 -0.005968 0.021176 -0.015391 -0.003002 -0.003841 -0.004440 0.003756 -0.006035 -0.026006 -0.007080 0.009826 -0.008030 -0.013632 -0.015205 0.000524 -0.010230 -0.013172 -0.005026 -0.014157 -0.010453 -0.003460 -0.023077 0.010247 0.010706 -0.004751 -0.019670 -0.001401 0.022752 -0.012557 
OF -0.016944 -0.020081 -0.001695 0.001130 -0.001821 -0.022500 -0.007968 0.003767 0.006126 0.011313 0.001339 -0.006502 0.003177 -0.007260 -0.000266 -0.004237 -0.021559 0.029190 0.012587 -0.006710 -0.004866 0.014601 0.015243 -0.005292 -0.005676 -0.009416 -0.025379 0.013021 0.012632 0.005244 0.002696 -0.027167 -0.003643 0.024759 0.003536 -0.011802 0.004625 -0.007960 0.013739 0.004694 0.002267 0.016312 -0.015899 -0.022453 0.014232 0.010817 -0.011343 -0.002188 -0.010975 0.000425 0.022338 0.009123 0.016538 0.017880 -0.013949 -0.000713 0.019467 0.008570 -0.005909 -0.008828 0.039311 -0.023696 -0.006825 0.013952 -0.003497 0.007620 0.012765 0.001655 0.016814 -0.005183 -0.000749 -0.010158 0.015593 -0.005302 -0.028114 0.013184 -0.024651 -0.000480 -0.004924 -0.007873 0.019097 0.007493 0.006260 -0.007461 0.018259 0.030189 0.006180 -0.008921 0.016934 -0.016929 0.011510 -0.003063 0.018114 0.007660 0.020282 0.016689 0.019343 0.007594 0.012988 -0.008391 0.005440 0.005076 -0.016300 -0.004138 0.006518 0.004866 0.003579 0.006828 0.000139 0.040765 -0.011664 0.035030 -0.024059 -0.016108 -0.002632 0.024654 0.022682 -0.029899 0.019322 0.014015 -0.007168 0.004878 -0.006075 -0.023932 -0.004843 0.005780 -0.001805 -0.009165 0.022420 0.015040 -0.005077 -0.001399 -0.012494 0.003487 0.001366 -0.009198 0.018174 -0.006456 -0.008608 -0.004206 -0.014234 0.020943 -0.011847 -0.013284 0.014454 0.010996 0.005763 0.025194 -0.024846 -0.009158 -0.003363 -0.008874 -0.008471 -0.031747 0.010676 -0.023382 0.006707 -0.001805 -0.006062 -0.002003 0.010409 -0.002271 0.012818 -0.016548 0.002202 0.021099 0.013162 0.005439 0.020064 0.021847 0.001763 -0.005888 0.021192 -0.013117 -0.001735 -0.003642 -0.003067 0.002770 -0.004426 -0.025131 -0.008549 0.005878 -0.005816 -0.014675 -0.014117 0.001505 -0.013007 -0.011126 -0.004308 -0.013104 -0.008654 0.000943 -0.021655 0.005807 0.007396 -0.003857 -0.015942 -0.004665 0.018169 -0.013040 
Capulet. -0.005047 -0.006063 0.001593 0.000519 0.001224 -0.008755 -0.002934 0.001863 0.001935 0.003511 -0.000697 -0.001316 0.001134 -0.002539 -0.002815 0.000659 -0.008510 0.009047 0.005272 -0.004843 -0.003162 0.005091 0.004055 0.000218 -0.000777 -0.001709 -0.007300 0.003674 0.003554 0.001744 0.002237 -0.007842 -0.002389 0.010106 0.001655 -0.000742 0.003247 -0.001344 0.006036 0.003325 0.003047 0.003931 -0.005105 -0.007194 0.005300 0.004195 -0.003884 -0.003973 -0.001356 0.000171 0.007499 -0.000193 0.005164 0.002486 -0.002602 -0.000235 0.003962 0.005749 -0.003391 -0.003660 0.009406 -0.006018 -0.000442 0.004698 -0.003417 0.000820 0.001380 0.000203 0.003781 0.000662 -0.002178 -0.003671 0.004303 -0.002928 -0.009561 0.004538 -0.004827 0.000092 -0.004249 -0.002967 0.006426 0.000928 0.002389 -0.003099 0.004267 0.006790 0.002331 -0.004645 0.006992 -0.007367 0.001930 0.001480 0.007539 0.002339 0.004502 0.003679 0.007487 0.002767 0.001979 -0.003350 0.001008 0.003978 -0.003351 -0.002129 0.000354 0.002866 0.002567 0.000152 -0.002702 0.011110 -0.003647 0.007945 -0.005709 -0.002634 0.001530 0.008408 0.004576 -0.010911 0.003525 0.002332 -0.001001 -0.000282 0.000534 -0.008445 -0.000903 -0.000053 -0.001725 -0.004870 0.009172 0.004715 0.000764 -0.000505 -0.003581 0.003113 0.003379 -0.002725 0.008242 -0.003557 -0.001502 0.000403 -0.005198 0.007745 -0.005569 -0.004891 0.005291 0.001576 0.003779 0.008067 -0.005026 -0.000222 -0.002055 -0.002931 -0.003537 -0.011070 0.001055 -0.006065 0.000956 0.000394 -0.004229 -0.001034 0.005271 -0.001545 0.005515 -0.006429 0.003492 0.006106 0.005549 -0.001069 0.006830 0.006237 -0.000332 -0.004121 0.007041 -0.004791 0.000593 -0.001580 -0.000114 0.000897 -0.001936 -0.004555 -0.000859 0.002782 -0.000165 -0.005415 -0.005505 0.001461 -0.005421 -0.003959 -0.002147 -0.001018 -0.004163 0.001078 -0.007989 0.004056 0.003314 -0.003346 -0.005775 -0.003411 0.004057 -0.001916 
But -0.016720 -0.021405 0.000392 -0.000075 -0.004593 -0.025431 -0.008275 0.002622 0.010705 0.012699 0.003034 -0.007299 0.004341 -0.010639 -0.000583 -0.006709 -0.024823 0.028841 0.015672 -0.009888 -0.004764 0.012829 0.012568 -0.007051 -0.007743 -0.009052 -0.027775 0.009612 0.015042 0.004319 0.001898 -0.028927 -0.003836 0.027029 0.001001 -0.011730 0.003531 -0.006946 0.012456 0.003418 0.000238 0.013609 -0.015394 -0.027457 0.017537 0.011874 -0.008930 -0.004834 -0.014867 -0.001184 0.021395 0.009318 0.014350 0.014737 -0.015502 0.001963 0.017972 0.010864 -0.002494 -0.006304 0.039591 -0.022803 -0.005938 0.014644 -0.004849 0.004528 0.011082 -0.000305 0.018381 -0.005539 0.000042 -0.013561 0.013804 -0.003001 -0.033500 0.012828 -0.022509 -0.001917 -0.004969 -0.011505 0.016089 0.007462 0.009042 -0.006360 0.017357 0.031105 0.003342 -0.012163 0.019343 -0.020670 0.011348 -0.003145 0.018734 0.008261 0.021020 0.017198 0.017838 0.010653 0.011416 -0.008764 0.007384 0.003547 -0.019310 -0.002007 0.007717 0.002754 0.005851 0.008122 -0.000272 0.040350 -0.008719 0.038497 -0.025357 -0.017213 -0.005193 0.024964 0.023912 -0.034870 0.020197 0.016736 -0.007185 0.003126 -0.007292 -0.023321 -0.003802 0.004933 -0.004980 -0.011173 0.025434 0.018746 -0.002617 -0.005125 -0.014930 0.005311 0.002534 -0.008005 0.024272 -0.008123 -0.007465 -0.006585 -0.019034 0.022830 -0.017299 -0.012713 0.014151 0.007372 0.009020 0.027456 -0.025491 -0.009421 -0.001784 -0.008223 -0.010471 -0.034571 0.010862 -0.020653 0.003916 -0.000006 -0.006795 0.001300 0.011182 -0.003725 0.011570 -0.018439 0.002070 0.022060 0.013194 0.001839 0.019956 0.022903 0.003900 -0.006212 0.020104 -0.015224 -0.003232 -0.002922 -0.005725 0.004462 -0.001802 -0.024609 -0.011259 0.009757 -0.006975 -0.014815 -0.012365 0.001780 -0.009317 -0.011258 -0.006330 -0.013256 -0.011436 -0.001419 -0.023653 0.010645 0.005955 -0.002915 -0.021541 -0.001862 0.020743 -0.013212 
To -0.005247 -0.009215 -0.000832 -0.002376 -0.000140 -0.011085 -0.003276 0.002526 0.004930 0.007726 0.002982 -0.002799 0.000461 -0.001658 -0.000744 -0.004492 -0.010159 0.014603 0.007549 -0.002981 -0.004160 0.005988 0.006474 -0.003511 -0.003431 -0.002396 -0.013139 0.003513 0.007694 0.003409 0.001647 -0.011668 -0.001752 0.010449 -0.000584 -0.003234 -0.000995 -0.002233 0.006746 0.003891 -0.001344 0.004220 -0.009666 -0.009715 0.008088 0.006552 -0.004986 -0.004577 -0.007662 0.001600 0.011127 0.000881 0.008817 0.006855 -0.007306 0.001774 0.008655 0.003030 -0.000927 -0.004681 0.019012 -0.009996 -0.005178 0.006916 -0.004074 0.003999 0.005950 0.001464 0.008831 -0.001849 -0.000473 -0.006502 0.005566 -0.004562 -0.011035 0.004938 -0.012000 -0.001496 -0.002560 -0.004794 0.008977 0.004558 0.003655 -0.001871 0.009674 0.011386 0.003402 -0.004853 0.005856 -0.008599 0.007361 -0.001834 0.010740 0.001393 0.006653 0.005935 0.009143 0.002147 0.007105 -0.006509 0.000132 0.001424 -0.006911 -0.004145 0.004889 0.003230 0.001522 0.001648 -0.000044 0.019384 -0.004655 0.017687 -0.010702 -0.007109 -0.003839 0.011563 0.012565 -0.013131 0.009446 0.005768 -0.001922 0.002968 -0.002100 -0.007604 -0.000234 0.002049 -0.000486 -0.002532 0.010845 0.005740 -0.001705 -0.000943 -0.005959 0.004069 0.000658 -0.005898 0.008677 -0.004397 -0.004223 -0.003251 -0.008481 0.011428 -0.004898 -0.003091 0.005091 0.001647 0.005519 0.013418 -0.013757 -0.005422 -0.002182 -0.003857 -0.006212 -0.012602 0.005979 -0.008015 0.004487 -0.000579 -0.000706 0.002494 0.003352 -0.002504 0.005304 -0.007071 0.000239 0.007579 0.007200 0.002324 0.010845 0.011134 -0.001068 -0.005569 0.011291 -0.008356 0.001132 -0.003777 -0.004731 0.001335 -0.002160 -0.010266 -0.005154 0.004001 -0.003218 -0.007456 -0.004926 0.000888 -0.003334 -0.007607 -0.003763 -0.005309 -0.003420 -0.001069 -0.010433 0.005634 0.003147 0.000290 -0.006125 -0.002107 0.009487 -0.006839 
thy -0.000873 0.000441 -0.001746 0.001945 0.000551 -0.000028 -0.001357 0.001423 0.002983 0.001180 0.000220 -0.000446 -0.000197 -0.000221 -0.001916 -0.002514 -0.002460 0.000342 -0.000119 -0.000770 -0.000619 -0.000257 0.003089 -0.002261 -0.002206 -0.000473 -0.001192 0.000495 0.001532 0.000086 -0.001687 -0.002660 -0.001542 -0.000555 0.002365 0.001961 -0.000353 0.000068 0.000913 0.000770 0.002008 0.000973 -0.003469 0.000067 0.001957 0.001245 -0.001436 -0.001178 -0.002785 0.000460 -0.000007 -0.000350 0.002214 0.002923 0.000674 -0.001681 -0.000659 0.002705 0.000029 -0.001115 0.003246 -0.003760 -0.002286 0.002362 -0.003034 0.001856 -0.000719 0.000239 -0.000233 -0.002773 -0.001791 0.000172 0.002828 -0.001667 -0.003644 -0.000296 -0.003961 -0.001386 -0.002231 0.000483 0.003495 0.002182 0.002022 -0.001178 -0.000458 0.000857 -0.000725 -0.001296 -0.000083 0.000579 -0.000954 0.000043 0.001055 0.002185 0.002035 0.000801 0.002785 0.000055 -0.001008 -0.002178 -0.001803 -0.000171 -0.001770 -0.001464 -0.002000 0.002322 0.002866 -0.001289 -0.000195 0.004655 -0.000802 0.003209 -0.000016 0.000508 0.001951 0.003417 0.001651 -0.002928 0.000653 -0.000747 -0.001501 0.002631 -0.002388 -0.003770 -0.001316 -0.001066 0.001138 -0.001345 0.003235 0.003612 -0.000370 -0.001009 -0.003278 0.000585 -0.001513 -0.002972 -0.000283 -0.001814 -0.001878 -0.001205 0.000963 -0.000646 -0.001071 -0.000014 0.001980 0.001819 0.001100 0.001865 0.000809 -0.000830 0.002290 -0.002659 -0.000350 -0.000844 0.001513 0.000212 -0.000529 -0.000352 -0.000269 0.001057 0.001945 -0.001855 0.000270 -0.000234 -0.001461 0.001280 0.000804 -0.001253 0.000745 0.001854 -0.001757 0.000671 0.001630 -0.002617 0.002515 -0.002189 0.000238 -0.000097 0.001611 -0.001139 -0.000676 -0.000033 -0.002761 -0.001640 0.000464 -0.000354 0.000628 0.001430 -0.000861 -0.001543 0.001024 -0.001165 -0.000420 -0.000393 0.002744 -0.000775 -0.002791 -0.002146 0.001168 -0.000710 
do -0.025550 -0.032840 0.001952 -0.000012 -0.006820 -0.041516 -0.016279 0.008978 0.014730 0.021910 0.007272 -0.012782 0.002681 -0.009989 -0.002900 -0.005765 -0.036846 0.048712 0.024366 -0.015185 -0.005856 0.021356 0.023549 -0.013132 -0.008271 -0.013877 -0.040898 0.016702 0.019423 0.008583 0.007990 -0.040943 -0.008689 0.041551 0.004292 -0.014506 0.005445 -0.009404 0.021134 0.005735 0.005720 0.020880 -0.028373 -0.038854 0.026430 0.019862 -0.012266 -0.005695 -0.018946 -0.003023 0.034416 0.009236 0.024579 0.028009 -0.025223 0.001269 0.029852 0.018555 -0.005212 -0.010407 0.061604 -0.037312 -0.007138 0.022209 -0.007824 0.008081 0.015770 -0.001339 0.030195 -0.007921 0.001925 -0.019869 0.019775 -0.009068 -0.049569 0.021048 -0.036554 -0.000125 -0.009769 -0.016253 0.030225 0.009851 0.010970 -0.011716 0.029626 0.044500 0.004041 -0.018029 0.026332 -0.032122 0.021306 -0.004916 0.034419 0.012212 0.031434 0.029720 0.029636 0.015810 0.018578 -0.013304 0.007794 0.010323 -0.025870 -0.009171 0.009280 0.004276 0.006939 0.012288 -0.004166 0.066014 -0.017072 0.055717 -0.037013 -0.027698 -0.002391 0.037954 0.035467 -0.051119 0.028544 0.024136 -0.008440 0.007430 -0.008319 -0.036976 -0.009011 0.007714 -0.004688 -0.015478 0.037534 0.027374 -0.002744 -0.004585 -0.025040 0.005290 0.006834 -0.017160 0.033314 -0.010993 -0.014436 -0.010509 -0.027927 0.033016 -0.025156 -0.017546 0.025690 0.016052 0.014208 0.038188 -0.040107 -0.013790 -0.004385 -0.018775 -0.014754 -0.047588 0.011911 -0.034040 0.007676 -0.004328 -0.009938 -0.000022 0.016899 0.000030 0.015696 -0.028756 0.002550 0.029628 0.023434 0.005946 0.032709 0.033736 0.002373 -0.010465 0.030211 -0.021884 -0.001466 -0.006579 -0.007267 0.005388 -0.006046 -0.038300 -0.015431 0.013856 -0.010994 -0.020893 -0.023865 0.004132 -0.014981 -0.019305 -0.009794 -0.017038 -0.014348 0.000042 -0.031272 0.014749 0.015323 -0.003835 -0.027164 -0.003644 0.029628 -0.022948 
William -0.024084 -0.027386 0.000816 0.000618 -0.005790 -0.032679 -0.011172 0.003608 0.011051 0.018054 0.005618 -0.008483 0.004392 -0.010949 -0.003621 -0.008406 -0.030683 0.041741 0.020899 -0.015170 -0.004966 0.017835 0.020744 -0.010845 -0.009288 -0.010462 -0.035272 0.016050 0.015413 0.006500 0.003405 -0.038011 -0.003709 0.034495 0.001854 -0.014145 0.001827 -0.011277 0.017411 0.009191 0.005815 0.021361 -0.025113 -0.036069 0.020629 0.015481 -0.014183 -0.007400 -0.019125 -0.002724 0.029033 0.008797 0.018847 0.022082 -0.017942 0.000893 0.022906 0.012231 -0.007222 -0.012200 0.052236 -0.028811 -0.007178 0.018544 -0.007112 0.006349 0.015219 -0.000887 0.025827 -0.007398 0.000512 -0.014616 0.020772 -0.006213 -0.042140 0.016290 -0.030900 -0.001600 -0.009310 -0.010684 0.025360 0.010383 0.007123 -0.007468 0.025010 0.039324 0.008404 -0.012858 0.027104 -0.027983 0.017667 -0.003016 0.027562 0.010585 0.029158 0.026907 0.026614 0.015477 0.016512 -0.014008 0.007821 0.006653 -0.024244 -0.007588 0.009909 0.004557 0.004438 0.008542 -0.002938 0.057302 -0.013731 0.048678 -0.033565 -0.020825 -0.005753 0.033745 0.032054 -0.047101 0.024830 0.018358 -0.005071 0.006082 -0.007174 -0.031276 -0.006474 0.006746 -0.004984 -0.012016 0.034293 0.022747 -0.002613 -0.003788 -0.019516 0.004906 0.004785 -0.015832 0.029657 -0.009199 -0.013457 -0.012202 -0.024716 0.028168 -0.018537 -0.014557 0.023066 0.014741 0.013338 0.036150 -0.037481 -0.011184 -0.003575 -0.016552 -0.012462 -0.043170 0.011647 -0.028943 0.007733 -0.003414 -0.007348 -0.002006 0.012127 -0.000197 0.016466 -0.023035 0.001955 0.029300 0.019333 0.003610 0.027610 0.029229 0.002548 -0.007087 0.026189 -0.019801 0.000464 -0.003694 -0.005861 0.006215 -0.006199 -0.034030 -0.014280 0.011333 -0.009898 -0.019810 -0.017246 0.001293 -0.014880 -0.016241 -0.008247 -0.014258 -0.013804 -0.001328 -0.030049 0.009857 0.010541 -0.003378 -0.026403 -0.006905 0.029906 -0.018679 
Shakespeare -0.005082 -0.007179 0.001381 -0.001915 0.001524 -0.006301 -0.002729 0.002441 0.003152 0.002978 -0.001289 -0.004182 0.002953 -0.001103 -0.000788 -0.000682 -0.005873 0.011974 0.003591 -0.004944 -0.000637 0.004024 0.007235 -0.003202 0.000163 -0.004520 -0.008639 0.001690 0.006043 0.000920 0.003448 -0.010704 0.000751 0.009192 0.002339 -0.002565 0.002844 -0.003076 0.005482 0.002590 -0.000195 0.006163 -0.005976 -0.009798 0.007659 0.006421 -0.004471 -0.001826 -0.006684 -0.001045 0.006730 0.002416 0.002686 0.007068 -0.003724 0.000861 0.008092 0.001432 -0.003154 0.000179 0.012492 -0.008374 -0.001548 0.002251 0.000934 0.001048 0.003283 0.000321 0.008692 -0.001544 -0.000195 -0.002459 0.004383 0.000740 -0.010377 0.004999 -0.005978 0.001465 -0.001415 -0.002312 0.004804 0.002634 0.001764 -0.000601 0.006697 0.011955 0.000856 -0.001390 0.007729 -0.005560 0.003105 0.001688 0.008289 0.001826 0.007729 0.005330 0.004287 0.005223 0.004438 -0.003583 0.004427 0.002359 -0.004684 -0.001107 0.001197 -0.000850 0.004053 0.001011 -0.002750 0.015059 -0.003494 0.010074 -0.007103 -0.005243 0.000824 0.008416 0.006177 -0.009503 0.005576 0.005728 0.000622 -0.000116 -0.003939 -0.008314 -0.001646 0.003617 -0.002237 -0.001565 0.008779 0.005727 -0.002572 -0.003990 -0.007459 0.001571 0.001019 -0.003909 0.007212 -0.000031 -0.005847 -0.003428 -0.007344 0.005154 -0.007516 -0.001815 0.007589 0.003094 0.004584 0.009389 -0.007037 -0.003118 -0.002689 -0.002196 -0.005332 -0.010706 0.003836 -0.010318 -0.000253 -0.001206 -0.001824 0.001917 0.005333 0.000158 0.003077 -0.004254 -0.000082 0.005306 0.006823 0.002565 0.006871 0.008371 0.001428 -0.001737 0.005860 -0.004708 -0.002478 0.000321 -0.003392 -0.001370 -0.001385 -0.009909 -0.003082 0.001210 -0.003840 -0.006154 -0.006104 0.000899 -0.003388 -0.005956 0.000116 -0.003114 -0.003905 -0.002562 -0.008149 0.004040 0.001758 0.000890 -0.005663 -0.001322 0.008460 -0.005514 
Montague, 0.001583 -0.001554 0.002246 -0.001174 0.000753 0.000970 0.000901 -0.001050 0.001569 0.000354 -0.000165 0.001910 -0.000892 0.000113 0.002250 0.001848 -0.000301 0.000015 -0.002401 -0.000846 0.000920 0.001074 0.001586 0.000469 0.001599 0.000555 0.001164 -0.001316 0.001814 0.001975 -0.000464 -0.002062 -0.002106 0.000099 0.001155 -0.001377 0.002415 0.000943 0.001724 0.002380 -0.000792 0.001772 -0.001803 0.002098 -0.001651 0.001102 -0.001225 0.001919 0.001166 -0.001301 -0.002086 0.002233 0.000239 0.000578 0.001315 -0.000319 -0.000605 -0.000995 0.000932 0.002153 -0.001289 0.002495 -0.000032 -0.001210 -0.000483 0.000814 -0.002124 -0.000017 -0.000609 -0.000021 0.000359 0.002373 0.002159 0.002253 -0.000629 -0.001151 -0.002098 0.001153 -0.001886 -0.001448 -0.002054 0.001446 0.001041 0.001874 -0.000130 -0.000855 -0.001143 0.000455 -0.002498 0.001517 -0.001487 0.002185 0.000921 0.002078 -0.001787 0.001205 0.001453 0.000592 0.002410 -0.002094 0.001678 -0.001923 0.001807 -0.001072 0.000424 0.001796 -0.001642 0.002162 -0.002232 0.000267 0.000265 0.001748 0.000038 -0.001745 0.001981 -0.001922 -0.000186 0.001774 -0.000789 -0.002209 0.000923 -0.001908 -0.001094 -0.001221 -0.001557 0.000723 -0.000730 0.000182 -0.001298 -0.000567 -0.000244 0.002391 -0.000722 0.000237 0.001067 0.002045 -0.001000 0.000402 0.000157 0.002037 -0.002054 -0.001556 0.000228 0.001506 0.002443 -0.000874 0.000734 0.000844 0.000070 -0.001534 0.002377 0.001690 -0.000344 -0.001271 0.002111 0.001936 0.001277 -0.001570 -0.001861 0.000722 0.001263 0.002335 -0.000085 -0.001562 0.002191 0.001460 -0.001860 0.001726 -0.002111 -0.001929 -0.000231 -0.001525 -0.001563 0.000682 -0.001996 -0.002173 0.000161 -0.000940 0.002299 0.000173 0.000639 -0.000779 -0.001644 0.002152 -0.001299 -0.001571 -0.001871 0.001655 -0.000576 0.000200 -0.000178 -0.002176 -0.000864 -0.000699 -0.002114 0.001048 0.000416 0.001746 -0.001975 -0.002032 
two -0.008337 -0.013438 0.002537 0.001289 -0.002455 -0.013802 -0.006824 0.003415 0.003792 0.005939 0.004369 -0.003023 0.003219 -0.005932 0.000814 -0.004212 -0.016098 0.020722 0.011699 -0.008073 -0.004185 0.009974 0.008106 -0.003226 -0.001507 -0.003910 -0.016905 0.006842 0.006794 0.004116 0.003193 -0.015353 -0.001184 0.017099 0.004102 -0.004669 0.001787 -0.001962 0.010187 0.003200 0.003034 0.010200 -0.011572 -0.016632 0.007312 0.005993 -0.007213 -0.005174 -0.009762 -0.000351 0.011407 0.004926 0.011459 0.010992 -0.007626 0.002334 0.011771 0.007399 -0.000443 -0.003591 0.022346 -0.014890 -0.002395 0.009059 -0.001910 0.004394 0.007192 0.002708 0.013426 -0.001753 -0.001722 -0.006563 0.008603 -0.005061 -0.019896 0.005612 -0.015087 0.000414 -0.006235 -0.007876 0.008702 0.006190 0.002215 -0.004356 0.011411 0.017459 0.004225 -0.007786 0.010632 -0.013120 0.006506 -0.003701 0.015005 0.007547 0.011592 0.012081 0.012303 0.005321 0.009045 -0.006067 0.001627 0.003556 -0.008136 -0.004316 0.003227 0.001833 0.004517 0.002437 -0.000169 0.023696 -0.005782 0.021327 -0.016584 -0.011711 -0.001580 0.015647 0.014595 -0.022891 0.010845 0.011050 -0.004565 0.000448 -0.005363 -0.011892 -0.001586 0.002175 -0.001734 -0.007483 0.017001 0.012862 -0.001825 -0.003094 -0.008734 0.000907 0.001027 -0.008319 0.011369 -0.005985 -0.003375 -0.003696 -0.012306 0.011450 -0.008492 -0.009506 0.007650 0.003826 0.005098 0.013873 -0.016071 -0.006201 -0.000968 -0.004717 -0.007973 -0.019157 0.005424 -0.015913 0.004073 -0.001647 -0.003963 -0.002091 0.003486 -0.001572 0.008196 -0.010909 -0.000033 0.012123 0.007106 0.000881 0.010199 0.012474 0.002070 -0.005269 0.013620 -0.009568 -0.002441 -0.005432 -0.003733 0.004843 -0.004036 -0.016878 -0.005722 0.006427 -0.004513 -0.009940 -0.010618 0.002406 -0.006684 -0.007370 -0.001589 -0.008863 -0.004696 -0.002337 -0.013676 0.005797 0.005680 0.000016 -0.011033 -0.002194 0.013691 -0.007729 
