235 10
</s> 0.040027 0.044194 -0.038303 -0.032780 0.013666 0.030211 0.009409 0.002113 -0.036035 0.022185 
the 0.253913 1.144136 -0.279084 0.049258 0.425752 -0.404361 0.698625 0.487484 -1.117420 -1.122853 
of -0.762664 0.391153 -0.130241 -0.637835 -0.113427 1.099254 0.957918 1.472992 -2.558488 -0.806363 
and 0.298009 0.159198 -0.296588 -1.004846 0.420380 -0.495606 0.538876 1.204226 -0.912940 0.565615 
one 3.305511 -3.755426 2.689630 -1.723052 -8.499980 1.054111 1.318694 1.632722 3.825952 -1.903559 
in 0.494919 -0.059589 -0.405275 -0.954845 -0.306701 -0.819919 0.995612 0.729080 -0.896783 -0.112048 
a -0.832937 -0.348714 0.075449 1.337042 1.434568 -0.010967 0.823106 -1.918064 -0.142443 0.929824 
to 0.203191 1.642291 -1.552567 -0.251500 1.682370 -0.232750 -0.894098 -1.933405 -0.204778 -0.189414 
zero 4.281612 -3.756776 7.315616 -0.935353 -4.296368 1.838536 0.979325 5.233821 6.175597 -0.186834 
nine 3.098049 -4.887267 2.835386 -3.575593 -9.116219 0.273339 3.268860 1.853830 4.884051 -2.788952 
two 3.334662 -3.605059 5.445271 -0.368191 -5.139617 2.608803 0.819819 2.680721 5.196693 -0.987347 
is -3.439559 -0.083691 2.517494 2.881442 2.859839 2.544889 -0.797670 -1.292072 -1.391603 2.968111 
as -1.209329 0.632850 -1.316512 -0.283965 1.944078 -1.350812 -0.039856 -0.828145 -2.058907 2.181274 
eight 3.865678 -3.854419 2.724650 -1.620977 -9.368739 0.573317 1.411680 2.013129 2.708951 -2.149832 
for -1.075587 -0.296448 0.440935 -0.409287 1.348499 -0.442786 0.766846 -1.373298 0.412071 0.822123 
five 3.960671 -3.400101 4.458393 -0.532502 -7.279308 1.993595 0.603044 3.780816 4.800555 -1.028342 
three 3.439851 -3.304875 4.299858 -0.218523 -6.763164 2.495139 0.642501 3.117651 4.838440 -1.165173 
was 4.084102 0.991578 -5.383038 -0.058095 -2.787168 -3.860076 2.265560 -0.707629 -0.741998 -2.862470 
by -0.158571 0.408318 -0.445995 -0.771734 -0.307857 -0.414353 0.682000 -0.289248 -1.159426 -0.755647 
s 1.304655 -1.326565 -2.178339 -0.519003 -1.160005 -0.419462 3.302407 0.910430 0.871903 -0.989053 
four 3.876036 -3.068084 4.505632 -0.658357 -7.448212 2.148572 0.456681 3.098841 4.582101 -1.879467 
that -1.184989 2.502967 -3.112724 1.286819 2.861477 1.861027 -1.692469 -2.894950 -0.165049 0.316118 
six 4.367395 -3.713339 3.514690 -0.793401 -8.613871 1.504059 0.804445 3.082202 3.916064 -1.490989 
seven 3.789492 -3.916333 2.953446 -1.602409 -9.444573 1.409018 1.167341 2.614293 3.478948 -1.925838 
with 1.174823 0.151258 -0.472616 0.204930 1.125144 -0.972191 0.303122 -0.392757 0.656467 0.789044 
on 0.651590 -0.577917 -1.116240 -1.148834 0.413637 0.445009 2.030773 -0.650950 1.811222 -1.419209 
are -1.782561 0.649299 4.643074 1.413918 5.587895 2.096875 -3.597852 0.392659 -1.081191 5.362343 
it -1.708332 2.044459 -1.573036 2.370794 1.778372 -0.217837 -0.594153 -1.412079 0.309360 1.331942 
or -3.685495 0.595397 2.030432 -0.068039 4.137645 1.795144 -2.884916 -2.916401 -1.652136 3.939022 
from 0.703209 0.333976 -0.428556 -0.017261 0.019248 0.268970 0.300307 1.095687 -0.693610 0.096701 
an -1.794363 -0.307079 -0.139540 0.732921 1.053371 -0.009982 1.084567 -1.824341 -0.750538 0.800796 
his 4.447330 -0.112463 -11.157234 0.655635 -1.904653 0.593510 4.222501 -1.213704 -1.106514 -3.756907 
this -1.378806 1.689232 -1.300419 2.217449 2.472486 0.846518 -0.874457 -2.095767 -0.460247 1.068449 
which -0.716506 1.186350 -0.177266 1.499978 2.205772 -0.530302 0.065219 -0.795183 -1.629453 0.798039 
he 4.126333 0.701690 -11.090271 1.450210 -2.185989 0.163416 4.195789 -2.695592 -0.085913 -5.027265 
at 2.530836 0.169772 -1.454015 1.200691 -0.505290 -0.516314 1.900047 0.192506 1.335571 -1.856549 
be -2.293097 2.517723 -1.553567 0.424327 3.430244 1.335864 -2.761235 -4.650008 0.610026 1.053025 
were 3.796889 3.710925 -2.446602 -1.333449 -0.823707 -4.466301 -1.880646 0.988729 -0.981916 -1.205997 
also -0.557994 -0.305459 0.056400 0.104039 1.897622 -1.360416 0.500911 -0.033405 -1.589126 2.559095 
but 0.584753 2.100492 -2.714988 0.576809 1.461966 -0.371447 -1.549944 -1.327788 -0.195775 0.833220 
not -1.762667 2.903116 -2.301676 0.044878 2.710719 1.577070 -3.075175 -3.502927 -0.651300 0.740947 
have -0.927093 2.637406 -0.337428 -0.605561 4.574969 1.399833 -3.083196 -0.184383 0.763721 2.415818 
other -1.651559 0.280519 1.700409 -1.098522 3.512184 0.649845 -1.083127 0.339068 -1.300681 2.867021 
has -0.752065 0.510725 1.841089 -1.122760 4.423392 0.041860 0.386411 1.412098 -0.243593 1.541771 
their 1.818564 2.494312 -1.978740 -2.390767 3.445896 -0.988845 -2.525569 -0.728639 -0.758037 0.824884 
first 2.442541 -1.017411 -1.587146 -0.223365 -2.434568 -2.711774 2.959533 -1.311100 0.806599 -2.193766 
they 1.541150 3.656976 -2.123173 -0.496623 3.874814 0.069224 -4.809574 -1.860412 0.630352 1.974393 
its -0.878841 2.163984 2.381819 -0.042222 1.412177 -2.231826 0.824988 2.035458 -1.643643 -0.927082 
some -1.503947 1.575057 -0.547186 -0.643555 3.589802 -0.150942 -2.182100 -0.405874 -1.675801 3.434119 
had 5.510171 3.504526 -6.963464 -1.130045 -1.220870 -3.672122 0.024228 -0.997192 0.703459 -3.807770 
all -0.647554 0.533713 -0.369387 0.593541 2.645503 3.311971 -0.622239 -1.233718 0.351414 0.138865 
such -3.591947 1.022215 1.157906 0.275177 4.417161 -1.120248 -1.199919 -1.816558 -2.091922 4.121617 
many -0.947233 1.402600 -1.135091 -1.801795 4.339724 -1.573002 -0.341948 1.829727 -1.664589 3.278163 
there 0.495773 1.519782 0.382815 1.290387 3.118432 2.080803 -2.522850 0.732012 -0.581526 2.220535 
who 2.584113 0.187787 -5.981983 -3.465023 0.329525 1.020470 -0.023726 -0.459992 -1.180658 -0.542402 
used -4.205434 0.010285 2.789899 1.264849 1.399022 -3.984701 -1.800716 -3.608842 -1.314955 5.913107 
most -0.615676 0.695133 0.831934 -1.383063 3.368302 -1.379568 -0.558306 1.739485 -1.408986 3.161412 
when 2.008177 1.963700 -3.158069 1.441929 0.973600 -0.833504 -1.194982 -3.192403 1.014540 -0.524377 
more -1.794886 1.902803 -0.511548 0.364265 3.166150 -1.658309 -1.645604 -0.412967 0.738744 3.761709 
time 2.005429 0.897867 -2.595786 1.662824 1.605542 -0.949416 1.859359 -1.024183 1.738289 -1.332312 
these -0.794814 2.091909 1.036247 0.482303 4.136073 -0.766088 -2.038776 0.369580 -1.426010 2.867565 
only 0.470500 1.508821 -0.280899 1.101717 1.843344 0.717015 -1.777142 -1.624125 0.208616 0.611387 
after 4.834360 1.711784 -3.674059 -0.852524 -1.357811 -2.086382 0.847814 -0.454297 0.873668 -3.792960 
may -1.374018 -0.170501 2.507084 -1.562368 4.232063 3.138135 -3.141273 -4.145083 0.292046 2.023662 
would 0.118268 4.252528 -5.570115 0.093504 1.945817 -1.824262 -1.253580 -5.134596 2.315335 -2.084887 
into 0.682859 2.300374 -1.627610 1.407487 1.253805 -1.649617 -0.538030 -0.558645 -0.554813 0.159992 
however 0.058119 2.881196 -1.281405 -0.465949 2.469527 -1.379278 -2.026904 -1.545789 -0.921961 0.459068 
new 1.696253 0.171732 0.248848 -0.625202 0.658282 -1.950273 2.764951 0.737383 0.038516 -2.276133 
b -0.125063 -4.408638 7.722020 -1.488803 -10.435720 6.428954 -6.001618 -7.539907 1.777032 -0.840962 
during 3.285226 2.558726 -2.111614 -1.584685 -1.379181 -4.087701 0.795992 1.538536 0.164030 -2.803754 
people -1.033402 0.659570 -0.533805 -5.959351 1.017699 3.326066 -2.259741 3.094829 -1.956990 1.185671 
can -4.184774 1.242749 2.715487 2.836348 5.785520 2.982660 -3.321754 -3.839911 2.909498 4.605707 
over 2.870192 1.598429 1.233220 0.133072 1.299935 -0.907001 -0.383605 1.976577 2.118994 -0.795360 
about 0.145069 -0.113474 -1.022252 0.136165 0.479808 2.398723 0.699696 3.443769 1.871615 1.280255 
american -2.528741 -4.536544 2.217253 -8.601860 -6.832711 -1.074513 2.187679 -0.706914 1.451063 -0.234077 
if -2.537648 2.943693 0.916672 5.743440 4.571785 4.706651 -3.713085 -8.666927 2.523586 -0.723181 
i -2.679696 2.240705 -6.257704 5.537408 -8.292604 4.454796 -2.902458 -1.979886 5.231835 0.579378 
use -4.780744 1.090915 2.347402 -0.348689 2.670592 -2.675174 -2.020150 -2.567977 -0.482309 4.873828 
no -0.277429 2.057099 -0.675581 0.815600 1.088040 3.290925 -3.355168 -1.696509 1.967581 0.480767 
called -0.931830 -0.568559 0.373116 2.807084 1.976387 -0.275734 0.093623 -2.267546 -2.836741 2.619650 
d -2.689104 -4.205103 3.492003 1.041710 -12.489121 -4.614031 0.867509 -3.394040 5.813480 3.016821 
world -1.353320 -0.819517 -0.336085 -2.493339 1.564608 1.300094 3.675245 4.967020 1.475298 0.219744 
often -2.954659 0.319115 -0.139613 -0.506443 5.060628 -1.882432 -1.655600 -2.352634 -2.491233 6.019845 
will -1.495716 2.532832 0.319096 1.163054 5.554567 5.474989 -3.484714 -4.259782 5.079832 0.004191 
where 0.104057 0.845577 -0.727934 3.757027 1.084761 0.039290 -0.449607 -2.375700 -0.593592 0.979960 
history -5.123035 -0.657929 -1.467119 -2.145123 -3.710071 1.814673 5.004653 7.836228 -3.157274 -0.331756 
while 0.725269 1.498366 -1.421604 -0.362633 2.360857 -1.448199 -0.750257 -1.296321 -0.514401 0.792841 
state -1.818554 4.401581 5.933929 -2.618169 0.900268 1.443376 0.134002 1.841083 -5.873135 -8.153406 
between 0.171859 2.268358 2.684627 0.061408 0.490256 -0.365279 -1.370182 1.199200 -0.515429 -0.964923 
years 9.007578 0.104188 -0.473901 -1.521140 -0.456302 -0.568072 0.048210 3.793715 2.218415 -2.589193 
so -0.474258 2.719184 -2.956339 3.540084 2.624897 1.144078 -2.467310 -3.688359 0.865873 1.346320 
being 0.084629 1.417026 -2.245699 0.126733 2.395459 -0.046264 -0.798321 -0.880143 -0.485455 1.255080 
then 1.526798 1.809968 -1.630521 5.465353 0.645349 0.936605 -0.144859 -4.975142 1.883295 -2.495707 
made 1.564407 1.100634 -3.094815 -0.416388 0.906823 -2.596923 0.610049 -0.537264 1.434429 0.539144 
under 1.895532 3.553790 1.000573 -1.661073 -1.772495 -0.598352 -1.585548 0.998292 -1.910534 -4.604482 
any -2.863310 2.646044 0.692251 1.173931 3.802812 2.678590 -2.588824 -4.099094 -0.470497 -0.119213 
known 0.068991 0.020814 -0.427684 1.424121 0.210508 -1.750534 0.654334 1.194179 -3.369604 2.188350 
city 3.474544 1.824811 3.173933 1.650885 -0.334795 -1.974549 3.759529 10.978497 -4.376207 -2.648705 
them 1.366961 3.559430 -4.355876 -0.938332 3.255066 1.331075 -3.516706 -1.501092 0.388409 0.519723 
see -6.161624 -0.879745 0.062150 -1.040336 -1.023200 4.512075 0.356690 1.109616 -1.415487 2.186996 
both 0.033684 0.579191 -0.024278 -0.533727 1.851839 -1.155184 -0.355246 -1.180777 -1.206145 1.007480 
can_be -4.563012 0.775078 3.730088 5.707787 4.882153 1.016185 -2.110991 -3.592918 -0.352169 5.326053 
system -3.311744 1.353823 8.400052 1.405715 3.404176 -3.252992 0.630655 -2.984090 -1.367632 -1.094509 
her 10.082848 -4.857577 -8.408179 -4.149801 -0.553749 -0.760197 -2.400070 -7.520208 2.072067 3.695033 
later 3.814962 0.333455 -5.536770 0.541897 -2.080652 -3.641862 2.274430 -0.733764 -0.639336 -1.292885 
number -0.058162 -0.643601 4.770393 3.431901 3.242836 1.601854 0.235262 -0.364989 0.435549 1.182894 
since 1.011647 1.488688 2.187958 -0.998780 2.133555 -1.160944 -0.269416 0.688173 0.096969 -0.867910 
part -0.053468 1.963741 -0.091984 0.324894 -0.349072 -1.616891 -0.070383 2.624043 -2.441093 0.259810 
government 1.430614 4.225891 4.899415 -8.014370 1.390517 -1.681140 -0.889346 1.066443 -3.135550 -8.163764 
english -4.511299 -3.416065 0.259886 -4.969907 -9.035975 0.352391 -3.992913 -0.241849 -3.881177 6.976660 
name -0.541086 -2.659306 -2.886849 0.944315 -3.143617 -0.076028 1.118377 -0.707147 -6.926866 2.966901 
because -1.200239 2.812124 -1.467585 1.020824 3.389541 0.244940 -2.652586 -2.322574 -0.198523 1.777862 
well -0.776605 0.979075 -1.060726 -0.150796 2.389415 -1.911487 0.407294 0.791541 -0.938264 2.319449 
him 4.740345 1.601179 -12.028497 0.827338 -0.487608 2.185235 1.912555 -2.848391 0.621321 -4.218679 
c -2.813246 -1.559610 9.610872 6.735717 -6.423365 -1.725425 -1.160746 -3.242528 0.864406 1.693301 
early 2.497019 -0.535087 -3.143699 -0.073021 -1.827740 -4.082217 2.077891 2.681052 -2.751463 1.770624 
united_states -2.843829 0.312517 4.656411 -7.985706 -1.183179 -1.477038 2.601329 1.119299 -0.576984 -5.057172 
m -3.852845 1.367509 6.001308 8.271528 -5.472481 3.513727 0.888536 6.058612 7.756109 0.297442 
through -0.399760 1.750868 -0.649264 0.657175 2.454231 -0.245704 0.353801 0.074598 -0.362739 -0.163726 
including 0.027783 -0.892038 1.580068 -2.438211 2.092503 -1.981624 2.264513 2.544565 -1.379359 1.164687 
up 1.753593 1.261574 -1.340499 1.618197 2.161693 -0.110017 -0.107317 -0.267581 3.497628 0.468538 
example -4.929683 0.406691 2.305802 2.461586 3.311867 1.584203 -2.382630 -4.710240 -0.778770 4.067213 
each 0.943472 -0.028207 4.942160 3.313664 6.367248 1.663856 -0.529658 -3.210680 1.012895 0.416159 
same -0.264767 0.243929 0.169360 2.640084 2.922244 0.734047 -0.271608 -3.821937 0.455015 0.802620 
although 0.776649 1.705756 -0.549730 -0.919760 2.399437 -2.374744 -1.059644 0.181044 -1.507386 1.525348 
work -0.427390 -1.309780 -5.600655 0.582148 1.293212 -0.406997 4.033086 -1.270562 -1.641805 0.608689 
been 2.855442 3.112824 -3.751075 -1.681847 0.726689 -2.942278 -0.599272 -0.201581 -0.243344 -1.741452 
out 1.265256 1.631901 -3.333154 1.116022 1.914622 -0.306310 0.492124 -1.774944 2.971175 -0.713795 
like -1.866262 0.665051 -2.601227 1.620171 1.993575 -1.259230 -1.381957 -0.517611 0.705630 5.850207 
life 1.783646 -2.596104 -7.890101 -0.569731 -0.180899 4.431359 2.860207 0.598866 -1.152624 0.663989 
became 5.105685 0.949216 -4.361839 -1.354322 -3.567363 -5.865030 2.374494 1.055771 -2.855105 -2.805526 
than -1.423407 3.132447 0.219543 0.859652 3.557415 -1.495294 -3.412062 0.088074 1.908206 4.228606 
form -3.173516 0.173145 1.825965 3.106914 1.412795 0.115250 -1.646307 -2.517853 -3.715166 3.820500 
several 1.571621 0.077527 0.160963 -0.323954 2.392557 -2.259051 1.394792 1.328782 -0.897477 0.978086 
even -1.110392 3.053107 -2.585302 0.719741 3.503596 -0.324164 -2.321568 -1.869635 0.219919 1.999211 
year 6.745002 -2.084598 0.636690 -2.012389 2.274594 1.073112 4.436580 0.197978 3.014926 -5.748248 
british -1.614978 0.233031 -0.471080 -8.916501 -7.433898 -4.047317 -0.943387 -0.492250 -0.474278 -1.520842 
before 2.431042 1.623779 -3.174199 0.139129 0.634559 -0.477287 -0.008753 -1.558051 1.422246 -1.679809 
x 2.909296 -6.457746 5.901284 11.740524 0.811864 6.068314 0.731642 -6.762077 4.130546 3.618751 
could -0.433231 4.814430 -5.003927 1.242120 1.699282 -2.076657 -2.256319 -4.571359 0.813978 -0.960650 
what -4.430969 2.137906 -6.003854 1.012717 1.211504 3.654814 -0.121507 -1.294144 0.822997 1.075385 
have_been 0.232682 1.875232 -1.061456 -0.340460 3.009462 -0.232792 -1.386525 1.630368 -1.093944 2.212928 
now 0.175681 1.511612 -1.360444 0.767852 0.183274 -1.042473 0.546460 1.469390 -0.899476 0.115508 
day 3.168184 -3.408994 -0.577498 -5.498078 3.513780 8.255226 3.472032 0.866889 4.004520 -4.644313 
language -4.665505 -2.748177 3.085526 -0.200637 -3.692317 0.397524 -3.578736 3.134257 -7.791749 9.987918 
very -0.284144 1.900484 -0.994575 1.781199 3.217011 -2.092355 -1.611548 0.556242 1.397095 4.452168 
war -0.207049 6.556591 -2.844458 -6.057634 -5.231403 -4.092855 -0.405033 2.424638 1.889713 -7.531483 
has_been -1.174346 0.460940 0.593818 -0.962547 2.950470 -0.750290 0.841205 1.287912 -1.109389 1.550387 
she 9.782451 -5.217720 -7.811327 -4.624448 -0.598195 -0.979458 -2.531074 -9.054299 2.890107 3.475756 
university -0.892803 -3.841292 3.566546 2.108898 -3.628077 -0.865721 10.213146 3.541866 -7.365934 -5.883327 
another -0.523054 0.132730 -1.352902 1.556087 2.575651 0.290825 0.354559 -3.125631 0.587259 1.059543 
modern -2.710158 0.487027 -1.376584 0.524429 -0.307773 -2.140579 0.650258 3.655022 -4.478663 4.408377 
much -0.451713 2.848108 -2.633389 0.847597 2.320657 -2.897829 -0.645092 1.587115 0.277762 2.795640 
see_also -6.943561 -3.883052 4.671606 -2.670202 -2.196529 4.550110 3.922876 4.482103 -0.613426 1.575917 
french -0.640456 0.315183 1.568511 -6.378235 -9.962003 -3.120964 -4.731167 1.807269 -3.245824 1.935333 
still 0.755155 2.043083 -1.259827 0.121550 1.688519 -2.236724 -1.197240 0.394528 -0.364690 1.747910 
n -2.631246 0.862730 6.185933 12.458440 -4.509867 6.159377 -2.080161 -0.623865 -1.616517 0.024739 
th_century 2.333447 1.307401 -2.374214 1.632380 -5.426357 -5.346592 -0.292933 6.385172 -6.213251 3.275004 
until 5.117287 1.895305 -1.975746 0.445154 -2.409050 -2.915591 0.084192 0.693359 0.068539 -2.947603 
german -1.463183 1.582906 0.577214 -4.508173 -10.008391 -5.005259 -2.959393 2.643846 -3.173016 0.977234 
list -10.315277 -4.051694 4.305721 -3.708359 -0.483949 7.178953 5.531884 6.087504 -0.240451 1.753027 
country 1.227409 1.589428 3.910519 -6.519115 0.798533 -1.359121 0.651930 7.243292 0.028562 -1.995532 
second 2.351207 -0.260911 -0.647519 1.145329 -1.183593 -0.182731 1.585895 -2.422341 1.088813 -2.963827 
end 2.406472 2.278268 -0.379491 1.971438 0.650935 -1.933404 0.365386 0.188566 1.967595 -1.711922 
found 1.022252 0.597104 -1.777221 2.821871 1.265866 0.152064 -1.110850 1.608199 -1.494451 3.731978 
against 0.100117 3.985019 -2.772381 -3.652324 -0.443098 -0.789494 -0.427557 -1.541514 1.466764 -5.142477 
common -3.825914 0.268996 3.480733 -0.441652 2.882475 -0.714460 -3.084525 -1.422217 -3.541965 5.617682 
usually -2.623243 -0.086222 3.462197 0.948958 5.453524 -1.066057 -2.593626 -3.005911 -1.334162 6.102143 
group 0.227990 -4.419803 4.782505 -0.550429 2.336864 1.682444 2.044155 -2.296551 -5.080011 0.917809 
different -2.658463 -0.002504 2.134833 2.196909 5.191362 0.639876 -1.403615 -1.780047 -0.764623 5.055648 
music -0.471810 -8.316728 -2.301630 -0.921913 1.901145 -3.242373 7.984702 3.449098 -0.283587 9.036862 
book -0.980428 -4.868119 -7.311511 1.385699 -3.272002 5.431842 4.389440 1.706181 -2.669192 2.742086 
power -0.363766 5.649391 1.375242 -1.259958 0.731388 -1.607800 -2.618433 -1.743994 -1.305559 -4.770760 
u_s -3.265887 2.294108 5.942562 -8.017377 -2.251238 -2.296906 1.653789 1.576966 4.003727 -6.407721 
external_links -5.585077 -5.842108 3.485132 -3.352903 -3.556962 4.979606 5.828636 4.339125 -0.116417 0.651341 
major -0.507596 0.706674 3.122259 -1.670937 0.748779 -3.815613 2.342732 3.290973 -0.709653 -0.368712 
those -1.514373 2.645720 -0.203270 -1.329548 3.275557 1.137400 -2.538192 0.192973 -2.200507 1.211778 
term -5.404789 -1.774031 1.924824 -4.091906 0.991294 -1.657670 -0.266476 -5.190852 -7.004636 2.810041 
order 0.550547 0.634008 0.790072 0.817869 1.292781 0.521681 -1.539105 -6.824712 -4.242028 -2.228877 
f -4.042943 0.770568 10.177417 7.683002 -4.632056 -2.498802 0.623067 -5.572363 5.343654 -2.575708 
john -0.090253 -4.889555 -3.861483 -2.519981 -9.281278 3.044218 3.649572 -1.800038 -1.367576 -2.558756 
law -6.093714 2.249920 2.915500 -4.493365 0.118477 4.636711 -0.314670 -4.247543 -5.684317 -6.856773 
general -4.000112 1.316657 2.079751 -1.450035 -2.118795 -0.057505 0.324234 -1.585836 -2.554564 -2.452976 
game -1.417679 -2.172015 1.504545 1.413947 6.221045 -5.648650 8.440233 -2.490496 11.147883 0.394410 
set -2.749627 -2.617229 1.361413 5.591408 3.223571 1.650860 3.834254 -6.524859 0.936096 0.302606 
series 0.961934 -3.811398 -1.878013 2.040465 0.975261 -4.428566 8.705848 -0.135532 6.760015 0.490024 
using -3.173985 0.345458 2.479735 3.490880 2.698400 -2.440161 -0.413867 -3.536004 1.940051 4.017627 
god -1.198838 0.793170 -9.899850 -0.896859 0.858292 12.781279 -3.963118 -0.424036 -5.122457 1.167828 
way -2.233556 1.701069 -2.429704 2.123843 2.786167 1.131637 -0.810381 -2.553721 1.226559 1.809879 
national -0.257741 -1.150833 5.618722 -7.713653 1.092581 -0.046357 3.637658 3.183023 -2.461225 -4.938243 
include -2.573219 -1.399368 4.279370 -1.491491 4.155329 -1.009724 0.635620 2.167150 -2.670432 4.709150 
following 1.676437 0.472791 0.403282 -0.147015 -0.473533 0.606792 0.639298 -1.001868 -0.711881 -2.999059 
around 2.211774 1.196956 0.802156 1.598308 1.737931 -1.478531 0.368120 4.736661 0.636388 1.841726 
within -0.251231 1.980199 1.976461 -0.853482 3.913654 0.402167 -0.995779 0.523274 -3.417092 -0.336382 
we -5.840252 2.849958 -2.150225 5.868626 2.112064 9.990568 -2.403236 -5.781344 4.708954 -1.448847 
great 0.873114 1.790713 -6.078900 0.078613 -2.541403 1.056627 0.677649 3.983814 -1.199946 -0.316325 
long 0.684042 1.522775 -2.109115 1.348285 1.183166 -0.513948 -0.230774 1.989943 1.707224 1.932966 
death 6.016491 -0.326109 -8.156546 -0.195170 -1.925429 3.084734 1.014446 0.246918 -0.690648 -2.726211 
king 4.334629 3.498551 -7.812637 0.363802 -9.772262 2.955014 -3.739952 1.388587 -3.319555 -4.342888 
due 1.001777 2.566728 1.754615 -0.125324 2.594925 -2.628475 -1.391283 1.001257 0.716625 0.749714 
film -3.060747 -6.384959 -6.837434 -5.516567 -0.484191 -3.111975 8.209723 -1.554662 6.436174 4.294924 
large 0.823681 2.498969 3.338144 1.563520 3.388129 -3.371515 -0.778586 4.213509 -0.535637 2.611063 
e -6.709823 -1.646255 3.939764 7.571341 -8.052790 0.731156 2.266050 -2.696773 2.007587 0.743561 
among 0.735626 0.680566 -1.575655 -2.381679 1.779895 -0.433596 -0.147311 2.117798 -3.379820 1.231213 
political -1.124228 3.244007 0.302928 -6.833043 -0.032532 -1.558132 0.198647 0.718373 -5.432630 -5.343077 
theory -10.354756 0.214897 -2.893679 5.520988 1.266218 0.724114 7.519638 -2.382966 -3.360470 -0.707894 
small 0.758228 1.934362 3.458699 2.406684 2.546325 -2.638829 -1.946605 2.687547 -0.197948 3.586967 
area -0.122180 4.516596 6.459760 3.374746 1.001325 -2.579829 -0.267399 9.338904 -1.569631 0.091235 
given -1.339231 0.548874 -0.601840 3.346857 1.586409 2.695860 -0.749326 -4.363831 -1.874885 -0.119994 
considered -1.883125 1.156333 -1.868793 -0.988035 2.571043 -0.439211 -0.987022 -0.803677 -3.579515 2.547016 
church 4.957752 -0.090787 -2.167081 -0.261750 -0.858313 7.409096 -2.674316 2.210054 -12.269138 -2.484182 
population 6.681230 2.463166 7.928029 -2.553120 0.201176 1.678356 -5.412842 11.973510 -0.626474 1.283183 
international -4.853878 -2.039187 6.632167 -7.553466 1.344359 -0.081616 5.176939 2.748264 -0.361559 -3.082741 
though 0.857870 1.191511 -2.742661 -1.042697 2.141501 -1.520003 -1.112768 -0.747517 -1.761596 2.014585 
word -8.073668 -1.790220 -2.871281 0.308547 -3.597835 0.608893 -3.120540 -4.620489 -6.631033 8.564857 
p -4.565958 -0.401075 3.476054 8.271288 -6.543519 8.311312 -0.660145 -0.719673 0.145090 -1.366863 
r -4.233206 -2.935675 3.416325 9.410168 -7.757895 4.218040 2.161398 -0.216183 -0.992192 1.219731 
president 3.660181 -0.456736 4.667097 -8.062013 -2.227757 -0.897077 2.360201 -4.862722 -1.369859 -11.427156 
last 4.148964 -0.114096 -2.322954 0.110283 -0.824795 0.059096 1.758020 0.419719 2.974913 -2.436581 
ii 0.556239 2.844138 -2.033365 -0.685921 -9.038522 -0.639318 -0.792149 2.004637 0.467104 -4.492403 
man -0.361997 -1.922778 -8.663168 -1.464046 -2.042335 5.261165 1.894856 -0.326974 2.232403 0.611126 
high 0.320915 2.775975 4.448198 2.156855 2.200138 -2.960496 -2.331110 2.161257 2.274747 2.561609 
members 5.450440 -1.971756 4.408055 -7.310278 4.781316 2.845752 -1.278577 -1.589219 -6.423715 -3.406433 
family 8.124822 -5.938972 -1.615115 -1.551763 0.065615 2.267789 0.048175 0.522048 -7.448338 3.247502 
without -2.313974 2.234020 -1.415749 0.136849 2.798647 1.404557 -2.023671 -3.716405 0.167848 0.506795 
make -1.082824 1.923045 -1.991690 0.110383 3.920906 0.593201 -1.246224 -2.525764 3.282795 1.452713 
thus -1.315523 2.815150 -0.479281 1.753658 1.982292 1.492347 -3.062459 -3.198619 -1.788895 0.272592 
us -4.385720 2.016713 1.885851 -6.308574 -0.261883 3.970134 -0.177745 1.630666 8.099903 -3.242029 
you -4.742123 0.811690 -7.310714 1.178442 0.065580 7.419303 -2.740237 -1.491927 11.690252 5.344571 
popular -0.299258 -2.385468 -1.279285 -2.649574 2.360666 -5.706683 3.647852 1.469793 -0.302802 4.869355 
become 0.868917 1.656205 -2.508645 -1.520250 2.521805 -1.965396 -0.249781 -1.248601 -0.474137 0.315301 
times 0.693979 -0.567865 -0.505438 2.028904 1.398590 2.508384 1.779445 2.724500 2.261383 0.811040 
g -4.386394 -5.340127 7.192085 6.003561 -4.163886 0.980344 3.388680 -7.677992 -0.292191 0.361241 
left 4.563832 2.445643 -0.600101 5.269639 0.077019 -2.069644 0.200647 -3.824314 0.754635 -4.090157 
military -4.131089 6.644089 2.320151 -6.187745 -2.615483 -2.986693 0.022013 3.857793 0.625309 -6.951833 
